<?xml version="1.0"?>
<opencv_storage>
<stage3>
  <maxWeakCount>11</maxWeakCount>
  <stageThreshold>-8.6852115392684937e-01</stageThreshold>
  <weakClassifiers>
    <_>
      <internalNodes>
        0 -1 2968072 3.0098412185907364e-02</internalNodes>
      <leafValues>
        -4.3225806951522827e-01 7.5999999046325684e-01</leafValues></_>
    <_>
      <internalNodes>
        0 -1 988620 1.3803391717374325e-02</internalNodes>
      <leafValues>
        -3.2056072354316711e-01 4.2637532949447632e-01</leafValues></_>
    <_>
      <internalNodes>
        0 -1 2530149 4.4150266330689192e-04</internalNodes>
      <leafValues>
        -3.0488419532775879e-01 4.0211388468742371e-01</leafValues></_>
    <_>
      <internalNodes>
        0 -1 3598474 6.1130791436880827e-04</internalNodes>
      <leafValues>
        -3.3855077624320984e-01 3.7440165877342224e-01</leafValues></_>
    <_>
      <internalNodes>
        0 -1 4557273 7.6528653153218329e-05</internalNodes>
      <leafValues>
        -2.4165228009223938e-01 4.8651614785194397e-01</leafValues></_>
    <_>
      <internalNodes>
        0 -1 1958910 -1.5510565135627985e-03</internalNodes>
      <leafValues>
        -7.4063348770141602e-01 1.7012181878089905e-01</leafValues></_>
    <_>
      <internalNodes>
        0 -1 1221743 -3.8713878893759102e-05</internalNodes>
      <leafValues>
        4.4837120175361633e-01 -2.8375464677810669e-01</leafValues></_>
    <_>
      <internalNodes>
        0 -1 3121986 -1.5009003982413560e-04</internalNodes>
      <leafValues>
        5.8238428831100464e-01 -2.0611280202865601e-01</leafValues></_>
    <_>
      <internalNodes>
        0 -1 1756108 1.5285992994904518e-03</internalNodes>
      <leafValues>
        2.7259719371795654e-01 -5.7584863901138306e-01</leafValues></_>
    <_>
      <internalNodes>
        0 -1 1905373 2.7268359437584877e-02</internalNodes>
      <leafValues>
        -2.0454762876033783e-01 6.7595034837722778e-01</leafValues></_>
    <_>
      <internalNodes>
        0 -1 4959155 1.8085489864461124e-04</internalNodes>
      <leafValues>
        -3.0206501483917236e-01 4.9271231889724731e-01</leafValues></_></weakClassifiers></stage3>
</opencv_storage>
