<?xml version="1.0"?>
<opencv_storage>
<stage7>
  <maxWeakCount>11</maxWeakCount>
  <stageThreshold>-7.8526103496551514e-01</stageThreshold>
  <weakClassifiers>
    <_>
      <internalNodes>
        0 -1 3445204 -1.4762157807126641e-03</internalNodes>
      <leafValues>
        7.8431373834609985e-01 -2.7932959794998169e-01</leafValues></_>
    <_>
      <internalNodes>
        0 -1 4003974 7.4250623583793640e-04</internalNodes>
      <leafValues>
        -3.3833891153335571e-01 3.6475163698196411e-01</leafValues></_>
    <_>
      <internalNodes>
        0 -1 226992 2.8095491230487823e-02</internalNodes>
      <leafValues>
        1.6007465124130249e-01 -7.6433902978897095e-01</leafValues></_>
    <_>
      <internalNodes>
        0 -1 4559792 3.9098708657547832e-04</internalNodes>
      <leafValues>
        -1.8460187315940857e-01 6.5211641788482666e-01</leafValues></_>
    <_>
      <internalNodes>
        0 -1 3584049 2.9966935471748002e-05</internalNodes>
      <leafValues>
        -3.0617704987525940e-01 3.8429889082908630e-01</leafValues></_>
    <_>
      <internalNodes>
        0 -1 1183181 -1.2116096913814545e-03</internalNodes>
      <leafValues>
        2.7378165721893311e-01 -5.1679432392120361e-01</leafValues></_>
    <_>
      <internalNodes>
        0 -1 1945903 7.8258221037685871e-05</internalNodes>
      <leafValues>
        -2.7547639608383179e-01 4.8359113931655884e-01</leafValues></_>
    <_>
      <internalNodes>
        0 -1 2916060 1.1687197547871619e-04</internalNodes>
      <leafValues>
        -3.0906206369400024e-01 4.0238785743713379e-01</leafValues></_>
    <_>
      <internalNodes>
        0 -1 1406330 -2.8569996356964111e-03</internalNodes>
      <leafValues>
        4.3115240335464478e-01 -3.0052682757377625e-01</leafValues></_>
    <_>
      <internalNodes>
        0 -1 390395 -1.3396845315583050e-04</internalNodes>
      <leafValues>
        3.7782353162765503e-01 -3.3784368634223938e-01</leafValues></_>
    <_>
      <internalNodes>
        0 -1 609253 1.3367633800953627e-04</internalNodes>
      <leafValues>
        -2.8968679904937744e-01 4.2775046825408936e-01</leafValues></_></weakClassifiers></stage7>
</opencv_storage>
