<?xml version="1.0"?>
<opencv_storage>
<stage5>
  <maxWeakCount>11</maxWeakCount>
  <stageThreshold>-1.1539472341537476e+00</stageThreshold>
  <weakClassifiers>
    <_>
      <internalNodes>
        0 -1 7170824 1.9863699562847614e-03</internalNodes>
      <leafValues>
        -3.8263666629791260e-01 6.6442954540252686e-01</leafValues></_>
    <_>
      <internalNodes>
        0 -1 2836589 1.6888538002967834e-01</internalNodes>
      <leafValues>
        -1.1939108371734619e-01 9.0229761600494385e-01</leafValues></_>
    <_>
      <internalNodes>
        0 -1 10148798 5.9855618746951222e-04</internalNodes>
      <leafValues>
        -1.3133120536804199e-01 8.8897985219955444e-01</leafValues></_>
    <_>
      <internalNodes>
        0 -1 5221632 -5.6897860486060381e-04</internalNodes>
      <leafValues>
        4.6877861022949219e-01 -2.7530413866043091e-01</leafValues></_>
    <_>
      <internalNodes>
        0 -1 3040103 -5.8887125924229622e-03</internalNodes>
      <leafValues>
        -8.1597965955734253e-01 1.6788840293884277e-01</leafValues></_>
    <_>
      <internalNodes>
        0 -1 10169388 1.4300949405878782e-03</internalNodes>
      <leafValues>
        2.3739561438560486e-01 -6.0416513681411743e-01</leafValues></_>
    <_>
      <internalNodes>
        0 -1 7602302 1.0867817327380180e-02</internalNodes>
      <leafValues>
        -3.8532519340515137e-01 3.3781069517135620e-01</leafValues></_>
    <_>
      <internalNodes>
        0 -1 9783495 1.7173064406961203e-03</internalNodes>
      <leafValues>
        2.4186934530735016e-01 -6.2076514959335327e-01</leafValues></_>
    <_>
      <internalNodes>
        0 -1 10401791 1.7433959874324501e-04</internalNodes>
      <leafValues>
        -3.4659984707832336e-01 4.1846850514411926e-01</leafValues></_>
    <_>
      <internalNodes>
        0 -1 6317956 2.1700952202081680e-03</internalNodes>
      <leafValues>
        2.5512236356735229e-01 -6.3934350013732910e-01</leafValues></_>
    <_>
      <internalNodes>
        0 -1 9538513 5.5221091315615922e-05</internalNodes>
      <leafValues>
        -4.4981029629707336e-01 2.9191824793815613e-01</leafValues></_></weakClassifiers></stage5>
</opencv_storage>
