<?xml version="1.0"?>
<opencv_storage>
<stage10>
  <maxWeakCount>10</maxWeakCount>
  <stageThreshold>-1.1433280706405640e+00</stageThreshold>
  <weakClassifiers>
    <_>
      <internalNodes>
        0 -1 5663906 1.8933167681097984e-02</internalNodes>
      <leafValues>
        -4.3076923489570618e-01 4.6000000834465027e-01</leafValues></_>
    <_>
      <internalNodes>
        0 -1 2304304 8.0579686909914017e-03</internalNodes>
      <leafValues>
        2.0904098451137543e-01 -6.0492277145385742e-01</leafValues></_>
    <_>
      <internalNodes>
        0 -1 8531809 -1.2234973837621510e-04</internalNodes>
      <leafValues>
        5.2587640285491943e-01 -2.3632572591304779e-01</leafValues></_>
    <_>
      <internalNodes>
        0 -1 8118980 -3.5158405080437660e-03</internalNodes>
      <leafValues>
        -7.7044504880905151e-01 1.4518159627914429e-01</leafValues></_>
    <_>
      <internalNodes>
        0 -1 8373350 -2.9127334710210562e-04</internalNodes>
      <leafValues>
        5.2178633213043213e-01 -2.9269418120384216e-01</leafValues></_>
    <_>
      <internalNodes>
        0 -1 7867552 3.6674337461590767e-03</internalNodes>
      <leafValues>
        2.2831492125988007e-01 -7.0956963300704956e-01</leafValues></_>
    <_>
      <internalNodes>
        0 -1 1602936 3.1876708817435429e-05</internalNodes>
      <leafValues>
        -3.1992024183273315e-01 4.2645409703254700e-01</leafValues></_>
    <_>
      <internalNodes>
        0 -1 9513009 3.8214498199522495e-03</internalNodes>
      <leafValues>
        2.0944465696811676e-01 -6.3114321231842041e-01</leafValues></_>
    <_>
      <internalNodes>
        0 -1 4667612 2.7044827118515968e-02</internalNodes>
      <leafValues>
        -4.3123194575309753e-01 3.4715667366981506e-01</leafValues></_>
    <_>
      <internalNodes>
        0 -1 4744331 1.2444140156731009e-04</internalNodes>
      <leafValues>
        -2.2436884045600891e-01 6.4573276042938232e-01</leafValues></_></weakClassifiers></stage10>
</opencv_storage>
