<?xml version="1.0"?>
<opencv_storage>
<stage10>
  <maxWeakCount>9</maxWeakCount>
  <stageThreshold>-6.3068521022796631e-01</stageThreshold>
  <weakClassifiers>
    <_>
      <internalNodes>
        0 -1 2245718 -1.8399378750473261e-03</internalNodes>
      <leafValues>
        6.4485979080200195e-01 -2.5212463736534119e-01</leafValues></_>
    <_>
      <internalNodes>
        0 -1 670317 4.7505669295787811e-02</internalNodes>
      <leafValues>
        -1.2092569470405579e-01 8.2632398605346680e-01</leafValues></_>
    <_>
      <internalNodes>
        0 -1 1958393 6.1639253981411457e-03</internalNodes>
      <leafValues>
        3.0576810240745544e-01 -3.8282462954521179e-01</leafValues></_>
    <_>
      <internalNodes>
        0 -1 2957127 1.5017774421721697e-03</internalNodes>
      <leafValues>
        -2.2661079466342926e-01 5.8522778749465942e-01</leafValues></_>
    <_>
      <internalNodes>
        0 -1 2066805 5.9265713207423687e-04</internalNodes>
      <leafValues>
        2.8515347838401794e-01 -4.3086203932762146e-01</leafValues></_>
    <_>
      <internalNodes>
        0 -1 1907017 -1.3280872255563736e-02</internalNodes>
      <leafValues>
        -8.1044524908065796e-01 1.9317626953125000e-01</leafValues></_>
    <_>
      <internalNodes>
        0 -1 846209 -6.2951934523880482e-04</internalNodes>
      <leafValues>
        6.8986910581588745e-01 -2.1902686357498169e-01</leafValues></_>
    <_>
      <internalNodes>
        0 -1 1178920 7.2915437631309032e-03</internalNodes>
      <leafValues>
        2.0060159265995026e-01 -6.4425611495971680e-01</leafValues></_>
    <_>
      <internalNodes>
        0 -1 69408 8.8757546618580818e-03</internalNodes>
      <leafValues>
        2.0692493021488190e-01 -5.7668250799179077e-01</leafValues></_></weakClassifiers></stage10>
</opencv_storage>
