<?xml version="1.0"?>
<opencv_storage>
<stage12>
  <maxWeakCount>12</maxWeakCount>
  <stageThreshold>-8.5631132125854492e-01</stageThreshold>
  <weakClassifiers>
    <_>
      <internalNodes>
        0 -1 2121219 3.3310172148048878e-03</internalNodes>
      <leafValues>
        -2.5274726748466492e-01 7.5000000000000000e-01</leafValues></_>
    <_>
      <internalNodes>
        0 -1 2635132 2.8591748327016830e-02</internalNodes>
      <leafValues>
        1.6857734322547913e-01 -7.9716533422470093e-01</leafValues></_>
    <_>
      <internalNodes>
        0 -1 2054373 -1.0157555516343564e-04</internalNodes>
      <leafValues>
        2.7493464946746826e-01 -3.7534323334693909e-01</leafValues></_>
    <_>
      <internalNodes>
        0 -1 2609836 2.5034300051629543e-04</internalNodes>
      <leafValues>
        -1.6093128919601440e-01 7.2048997879028320e-01</leafValues></_>
    <_>
      <internalNodes>
        0 -1 1664412 1.5317501500248909e-02</internalNodes>
      <leafValues>
        1.3697828352451324e-01 -7.8581023216247559e-01</leafValues></_>
    <_>
      <internalNodes>
        0 -1 918364 1.2568834237754345e-02</internalNodes>
      <leafValues>
        1.4407703280448914e-01 -7.3452609777450562e-01</leafValues></_>
    <_>
      <internalNodes>
        0 -1 1885095 1.9580230582505465e-04</internalNodes>
      <leafValues>
        -2.0871360599994659e-01 6.5011948347091675e-01</leafValues></_>
    <_>
      <internalNodes>
        0 -1 2397726 -2.2550083231180906e-03</internalNodes>
      <leafValues>
        -4.5028305053710938e-01 2.5177657604217529e-01</leafValues></_>
    <_>
      <internalNodes>
        0 -1 2548924 5.9841939946636558e-04</internalNodes>
      <leafValues>
        -3.1150490045547485e-01 3.6012753844261169e-01</leafValues></_>
    <_>
      <internalNodes>
        0 -1 1717492 -8.4154922515153885e-03</internalNodes>
      <leafValues>
        4.5792448520660400e-01 -2.4627126753330231e-01</leafValues></_>
    <_>
      <internalNodes>
        0 -1 990137 1.5161862829700112e-03</internalNodes>
      <leafValues>
        3.0965867638587952e-01 -3.8110479712486267e-01</leafValues></_>
    <_>
      <internalNodes>
        0 -1 2489324 -1.0530579835176468e-02</internalNodes>
      <leafValues>
        5.8068233728408813e-01 -2.4095496535301208e-01</leafValues></_></weakClassifiers></stage12>
</opencv_storage>
