<?xml version="1.0"?>
<opencv_storage>
<stage4>
  <maxWeakCount>10</maxWeakCount>
  <stageThreshold>-9.1810971498489380e-01</stageThreshold>
  <weakClassifiers>
    <_>
      <internalNodes>
        0 -1 1515316 2.3975834250450134e-02</internalNodes>
      <leafValues>
        -4.0350878238677979e-01 5.4285717010498047e-01</leafValues></_>
    <_>
      <internalNodes>
        0 -1 803649 9.4484277069568634e-03</internalNodes>
      <leafValues>
        -2.6979216933250427e-01 4.1267722845077515e-01</leafValues></_>
    <_>
      <internalNodes>
        0 -1 2437235 -1.0448936372995377e-02</internalNodes>
      <leafValues>
        -5.9501397609710693e-01 2.0707990229129791e-01</leafValues></_>
    <_>
      <internalNodes>
        0 -1 571825 1.7430959269404411e-04</internalNodes>
      <leafValues>
        -1.3536086678504944e-01 6.9392639398574829e-01</leafValues></_>
    <_>
      <internalNodes>
        0 -1 2171988 -7.5273407856002450e-04</internalNodes>
      <leafValues>
        5.0179278850555420e-01 -2.2803422808647156e-01</leafValues></_>
    <_>
      <internalNodes>
        0 -1 1834102 -8.0251786857843399e-03</internalNodes>
      <leafValues>
        -6.6460478305816650e-01 1.7326469719409943e-01</leafValues></_>
    <_>
      <internalNodes>
        0 -1 1361305 2.9907983844168484e-05</internalNodes>
      <leafValues>
        -3.8400438427925110e-01 3.3151778578758240e-01</leafValues></_>
    <_>
      <internalNodes>
        0 -1 373332 -4.0399041026830673e-03</internalNodes>
      <leafValues>
        -7.2782510519027710e-01 1.8914811313152313e-01</leafValues></_>
    <_>
      <internalNodes>
        0 -1 2143026 1.5925373008940369e-04</internalNodes>
      <leafValues>
        -3.8615736365318298e-01 3.1936046481132507e-01</leafValues></_>
    <_>
      <internalNodes>
        0 -1 2244324 7.6414109207689762e-04</internalNodes>
      <leafValues>
        -2.0912060141563416e-01 7.3981583118438721e-01</leafValues></_></weakClassifiers></stage4>
</opencv_storage>
