<?xml version="1.0"?>
<opencv_storage>
<stage7>
  <maxWeakCount>8</maxWeakCount>
  <stageThreshold>-7.1122205257415771e-01</stageThreshold>
  <weakClassifiers>
    <_>
      <internalNodes>
        0 -1 43442835 7.8421318903565407e-04</internalNodes>
      <leafValues>
        -3.0057802796363831e-01 7.3684209585189819e-01</leafValues></_>
    <_>
      <internalNodes>
        0 -1 64827460 2.4667244815645972e-06</internalNodes>
      <leafValues>
        4.8127031326293945e-01 -3.1652829051017761e-01</leafValues></_>
    <_>
      <internalNodes>
        0 -1 60802885 -1.1708182282745838e-03</internalNodes>
      <leafValues>
        5.5070680379867554e-01 -3.0313560366630554e-01</leafValues></_>
    <_>
      <internalNodes>
        0 -1 48628244 1.2634985614567995e-04</internalNodes>
      <leafValues>
        -2.3285734653472900e-01 6.0453456640243530e-01</leafValues></_>
    <_>
      <internalNodes>
        0 -1 17281754 -8.8574644178152084e-03</internalNodes>
      <leafValues>
        4.5556974411010742e-01 -3.4769189357757568e-01</leafValues></_>
    <_>
      <internalNodes>
        0 -1 31541920 1.0344246402382851e-02</internalNodes>
      <leafValues>
        -2.8047925233840942e-01 5.9094280004501343e-01</leafValues></_>
    <_>
      <internalNodes>
        0 -1 41504453 -2.9430678114295006e-03</internalNodes>
      <leafValues>
        7.0963680744171143e-01 -2.5927272439002991e-01</leafValues></_>
    <_>
      <internalNodes>
        0 -1 64501760 1.7520380788482726e-04</internalNodes>
      <leafValues>
        -3.0586946010589600e-01 6.8234121799468994e-01</leafValues></_></weakClassifiers></stage7>
</opencv_storage>
