<?xml version="1.0"?>
<opencv_storage>
<stage3>
  <maxWeakCount>10</maxWeakCount>
  <stageThreshold>-8.8117182254791260e-01</stageThreshold>
  <weakClassifiers>
    <_>
      <internalNodes>
        0 -1 42610762 1.1022904887795448e-02</internalNodes>
      <leafValues>
        -3.8906753063201904e-01 6.7785233259201050e-01</leafValues></_>
    <_>
      <internalNodes>
        0 -1 15769885 8.2167753134854138e-05</internalNodes>
      <leafValues>
        -3.5646587610244751e-01 4.8337188363075256e-01</leafValues></_>
    <_>
      <internalNodes>
        0 -1 34720212 -2.0482586696743965e-03</internalNodes>
      <leafValues>
        5.7276922464370728e-01 -2.6823776960372925e-01</leafValues></_>
    <_>
      <internalNodes>
        0 -1 35313174 -1.1506702750921249e-02</internalNodes>
      <leafValues>
        -7.3018652200698853e-01 2.2984583675861359e-01</leafValues></_>
    <_>
      <internalNodes>
        0 -1 5980694 -6.4723184332251549e-03</internalNodes>
      <leafValues>
        6.4566344022750854e-01 -2.9613724350929260e-01</leafValues></_>
    <_>
      <internalNodes>
        0 -1 63123039 -9.3720301985740662e-02</internalNodes>
      <leafValues>
        -9.3785297870635986e-01 1.6337952017784119e-01</leafValues></_>
    <_>
      <internalNodes>
        0 -1 36001891 -8.3016662392765284e-04</internalNodes>
      <leafValues>
        5.0790071487426758e-01 -3.3785709738731384e-01</leafValues></_>
    <_>
      <internalNodes>
        0 -1 51311893 9.7482756245881319e-04</internalNodes>
      <leafValues>
        -2.3333252966403961e-01 7.8011101484298706e-01</leafValues></_>
    <_>
      <internalNodes>
        0 -1 31259716 -6.7800018005073071e-03</internalNodes>
      <leafValues>
        -7.5226032733917236e-01 2.7074143290519714e-01</leafValues></_>
    <_>
      <internalNodes>
        0 -1 20647090 4.5373719185590744e-03</internalNodes>
      <leafValues>
        3.3595943450927734e-01 -6.1742204427719116e-01</leafValues></_></weakClassifiers></stage3>
</opencv_storage>
