<?xml version="1.0"?>
<opencv_storage>
<stage5>
  <maxWeakCount>6</maxWeakCount>
  <stageThreshold>-5.9945923089981079e-01</stageThreshold>
  <weakClassifiers>
    <_>
      <internalNodes>
        0 -1 36529431 2.0432755351066589e-02</internalNodes>
      <leafValues>
        -4.9140894412994385e-01 7.2781062126159668e-01</leafValues></_>
    <_>
      <internalNodes>
        0 -1 33219270 -6.9898110814392567e-03</internalNodes>
      <leafValues>
        -8.3384943008422852e-01 2.5344863533973694e-01</leafValues></_>
    <_>
      <internalNodes>
        0 -1 11319382 6.6021261736750603e-03</internalNodes>
      <leafValues>
        3.0174571275711060e-01 -6.1335808038711548e-01</leafValues></_>
    <_>
      <internalNodes>
        0 -1 17067225 9.0420693159103394e-03</internalNodes>
      <leafValues>
        -4.4895306229591370e-01 4.2588356137275696e-01</leafValues></_>
    <_>
      <internalNodes>
        0 -1 49250947 6.0363404918462038e-04</internalNodes>
      <leafValues>
        -3.2987779378890991e-01 6.2028223276138306e-01</leafValues></_>
    <_>
      <internalNodes>
        0 -1 8850248 8.1227477639913559e-03</internalNodes>
      <leafValues>
        3.2804763317108154e-01 -6.6392225027084351e-01</leafValues></_></weakClassifiers></stage5>
</opencv_storage>
