<?xml version="1.0"?>
<opencv_storage>
<stage4>
  <maxWeakCount>8</maxWeakCount>
  <stageThreshold>-7.2465705871582031e-01</stageThreshold>
  <weakClassifiers>
    <_>
      <internalNodes>
        0 -1 22309114 -2.2341890726238489e-03</internalNodes>
      <leafValues>
        8.0357140302658081e-01 -3.1609195470809937e-01</leafValues></_>
    <_>
      <internalNodes>
        0 -1 22292069 -2.7215056121349335e-02</internalNodes>
      <leafValues>
        6.0463416576385498e-01 -2.3769949376583099e-01</leafValues></_>
    <_>
      <internalNodes>
        0 -1 5754271 -1.7996805254369974e-03</internalNodes>
      <leafValues>
        7.3297047615051270e-01 -1.9824214279651642e-01</leafValues></_>
    <_>
      <internalNodes>
        0 -1 24250290 3.6297263577580452e-03</internalNodes>
      <leafValues>
        -1.7127040028572083e-01 8.3116394281387329e-01</leafValues></_>
    <_>
      <internalNodes>
        0 -1 23214432 2.1890662610530853e-03</internalNodes>
      <leafValues>
        3.2416421175003052e-01 -5.5909317731857300e-01</leafValues></_>
    <_>
      <internalNodes>
        0 -1 31257097 -1.9353121751919389e-04</internalNodes>
      <leafValues>
        5.3181499242782593e-01 -3.2975572347640991e-01</leafValues></_>
    <_>
      <internalNodes>
        0 -1 32839476 2.4529505753889680e-04</internalNodes>
      <leafValues>
        -2.3007975518703461e-01 7.1713835000991821e-01</leafValues></_>
    <_>
      <internalNodes>
        0 -1 29091870 -4.2614759877324104e-03</internalNodes>
      <leafValues>
        5.0563800334930420e-01 -3.8632875680923462e-01</leafValues></_></weakClassifiers></stage4>
</opencv_storage>
