<?xml version="1.0"?>
<opencv_storage>
<stage8>
  <maxWeakCount>5</maxWeakCount>
  <stageThreshold>-1.2053496837615967e+00</stageThreshold>
  <weakClassifiers>
    <_>
      <internalNodes>
        0 -1 17750943 -4.3802866712212563e-03</internalNodes>
      <leafValues>
        -9.1044777631759644e-01 3.1288343667984009e-01</leafValues></_>
    <_>
      <internalNodes>
        0 -1 22980403 9.6484962850809097e-03</internalNodes>
      <leafValues>
        -3.5036051273345947e-01 6.7137259244918823e-01</leafValues></_>
    <_>
      <internalNodes>
        0 -1 19130558 -2.9058330692350864e-03</internalNodes>
      <leafValues>
        6.6754674911499023e-01 -2.7490526437759399e-01</leafValues></_>
    <_>
      <internalNodes>
        0 -1 20889443 -3.3136850688606501e-03</internalNodes>
      <leafValues>
        7.1009844541549683e-01 -3.3294442296028137e-01</leafValues></_>
    <_>
      <internalNodes>
        0 -1 14150770 -2.8400234878063202e-02</internalNodes>
      <leafValues>
        -5.6002295017242432e-01 4.0156343579292297e-01</leafValues></_></weakClassifiers></stage8>
</opencv_storage>
