<?xml version="1.0"?>
<opencv_storage>
<stage2>
  <maxWeakCount>9</maxWeakCount>
  <stageThreshold>-7.6367443799972534e-01</stageThreshold>
  <weakClassifiers>
    <_>
      <internalNodes>
        0 -1 13013313 2.5807474739849567e-03</internalNodes>
      <leafValues>
        -3.3727809786796570e-01 7.7049177885055542e-01</leafValues></_>
    <_>
      <internalNodes>
        0 -1 7720494 1.4750191941857338e-02</internalNodes>
      <leafValues>
        2.1514444053173065e-01 -7.0717293024063110e-01</leafValues></_>
    <_>
      <internalNodes>
        0 -1 15702596 2.7281615883111954e-02</internalNodes>
      <leafValues>
        -1.8329505622386932e-01 8.3085280656814575e-01</leafValues></_>
    <_>
      <internalNodes>
        0 -1 12326522 6.4460998401045799e-03</internalNodes>
      <leafValues>
        1.9089326262474060e-01 -7.2146582603454590e-01</leafValues></_>
    <_>
      <internalNodes>
        0 -1 3846141 -1.2395927682518959e-02</internalNodes>
      <leafValues>
        5.4418885707855225e-01 -2.6098710298538208e-01</leafValues></_>
    <_>
      <internalNodes>
        0 -1 1924180 -1.0080644860863686e-02</internalNodes>
      <leafValues>
        -6.6297924518585205e-01 2.1299876272678375e-01</leafValues></_>
    <_>
      <internalNodes>
        0 -1 5038173 -9.6744362963363528e-04</internalNodes>
      <leafValues>
        4.5834171772003174e-01 -3.2305359840393066e-01</leafValues></_>
    <_>
      <internalNodes>
        0 -1 12233667 -2.4375643988605589e-04</internalNodes>
      <leafValues>
        3.9119359850883484e-01 -3.6247619986534119e-01</leafValues></_>
    <_>
      <internalNodes>
        0 -1 8533860 6.7743686959147453e-03</internalNodes>
      <leafValues>
        2.4523837864398956e-01 -5.6210750341415405e-01</leafValues></_></weakClassifiers></stage2>
</opencv_storage>
