<?xml version="1.0"?>
<opencv_storage>
<stage1>
  <maxWeakCount>9</maxWeakCount>
  <stageThreshold>-1.3189888000488281e+00</stageThreshold>
  <weakClassifiers>
    <_>
      <internalNodes>
        0 -1 12680990 2.7697964105755091e-03</internalNodes>
      <leafValues>
        -4.1137123107910156e-01 6.3975155353546143e-01</leafValues></_>
    <_>
      <internalNodes>
        0 -1 1483450 1.3793134130537510e-02</internalNodes>
      <leafValues>
        3.5558867454528809e-01 -3.9058032631874084e-01</leafValues></_>
    <_>
      <internalNodes>
        0 -1 9150221 1.4195392141118646e-03</internalNodes>
      <leafValues>
        2.8443211317062378e-01 -5.8558499813079834e-01</leafValues></_>
    <_>
      <internalNodes>
        0 -1 17557484 -4.9596503376960754e-03</internalNodes>
      <leafValues>
        -7.0960462093353271e-01 2.1997334063053131e-01</leafValues></_>
    <_>
      <internalNodes>
        0 -1 666823 1.2558975722640753e-03</internalNodes>
      <leafValues>
        -3.2241541147232056e-01 4.6917435526847839e-01</leafValues></_>
    <_>
      <internalNodes>
        0 -1 17926429 1.2643594527617097e-04</internalNodes>
      <leafValues>
        -2.5277861952781677e-01 5.3871530294418335e-01</leafValues></_>
    <_>
      <internalNodes>
        0 -1 18395335 -4.6631763689219952e-04</internalNodes>
      <leafValues>
        -4.0530937910079956e-01 3.6311262845993042e-01</leafValues></_>
    <_>
      <internalNodes>
        0 -1 19207725 -4.5651051914319396e-04</internalNodes>
      <leafValues>
        5.5076444149017334e-01 -3.1056123971939087e-01</leafValues></_>
    <_>
      <internalNodes>
        0 -1 15462658 -1.4938581734895706e-03</internalNodes>
      <leafValues>
        2.9559719562530518e-01 -4.9880006909370422e-01</leafValues></_></weakClassifiers></stage1>
</opencv_storage>
