<?xml version="1.0"?>
<opencv_storage>
<stage12>
  <maxWeakCount>10</maxWeakCount>
  <stageThreshold>-8.5445010662078857e-01</stageThreshold>
  <weakClassifiers>
    <_>
      <internalNodes>
        0 -1 3015975 3.6156389862298965e-02</internalNodes>
      <leafValues>
        -1.6748768091201782e-01 8.8888889551162720e-01</leafValues></_>
    <_>
      <internalNodes>
        0 -1 6205170 5.4758805781602859e-03</internalNodes>
      <leafValues>
        1.5148556232452393e-01 -7.7895528078079224e-01</leafValues></_>
    <_>
      <internalNodes>
        0 -1 3588092 -2.1379860118031502e-03</internalNodes>
      <leafValues>
        3.6665931344032288e-01 -3.4854736924171448e-01</leafValues></_>
    <_>
      <internalNodes>
        0 -1 3928427 -3.5246447660028934e-03</internalNodes>
      <leafValues>
        -7.2983324527740479e-01 2.2968603670597076e-01</leafValues></_>
    <_>
      <internalNodes>
        0 -1 4347059 -4.0483017801307142e-04</internalNodes>
      <leafValues>
        4.4160529971122742e-01 -2.6786136627197266e-01</leafValues></_>
    <_>
      <internalNodes>
        0 -1 6021325 1.2181111378595233e-04</internalNodes>
      <leafValues>
        -1.8692663311958313e-01 6.9483178853988647e-01</leafValues></_>
    <_>
      <internalNodes>
        0 -1 933416 2.0209426293149590e-04</internalNodes>
      <leafValues>
        -1.8661965429782867e-01 6.2369757890701294e-01</leafValues></_>
    <_>
      <internalNodes>
        0 -1 1627 -1.4865989796817303e-02</internalNodes>
      <leafValues>
        -8.1751841306686401e-01 1.4161489903926849e-01</leafValues></_>
    <_>
      <internalNodes>
        0 -1 3866626 4.9599380872678012e-05</internalNodes>
      <leafValues>
        -3.1516858935356140e-01 3.9684629440307617e-01</leafValues></_>
    <_>
      <internalNodes>
        0 -1 3820970 1.2235669419169426e-03</internalNodes>
      <leafValues>
        2.0680390298366547e-01 -6.1664015054702759e-01</leafValues></_></weakClassifiers></stage12>
</opencv_storage>
