<?xml version="1.0"?>
<opencv_storage>
<stage3>
  <maxWeakCount>11</maxWeakCount>
  <stageThreshold>-1.0290095806121826e+00</stageThreshold>
  <weakClassifiers>
    <_>
      <internalNodes>
        0 -1 1858999 4.1517853736877441e-02</internalNodes>
      <leafValues>
        -4.2205321788787842e-01 4.6192893385887146e-01</leafValues></_>
    <_>
      <internalNodes>
        0 -1 2680788 6.3468310981988907e-03</internalNodes>
      <leafValues>
        1.3383068144321442e-01 -8.3630812168121338e-01</leafValues></_>
    <_>
      <internalNodes>
        0 -1 4992719 3.0736755579710007e-03</internalNodes>
      <leafValues>
        -2.1087247133255005e-01 5.9125083684921265e-01</leafValues></_>
    <_>
      <internalNodes>
        0 -1 5392333 -1.6192698851227760e-02</internalNodes>
      <leafValues>
        -7.9760736227035522e-01 1.4859464764595032e-01</leafValues></_>
    <_>
      <internalNodes>
        0 -1 4443718 3.7393127568066120e-03</internalNodes>
      <leafValues>
        -2.4598388373851776e-01 8.0687034130096436e-01</leafValues></_>
    <_>
      <internalNodes>
        0 -1 4717400 -1.0039481334388256e-02</internalNodes>
      <leafValues>
        -5.6631898880004883e-01 2.6465788483619690e-01</leafValues></_>
    <_>
      <internalNodes>
        0 -1 1731764 2.2197645157575607e-03</internalNodes>
      <leafValues>
        1.3669101893901825e-01 -6.8271666765213013e-01</leafValues></_>
    <_>
      <internalNodes>
        0 -1 5998910 2.8467057272791862e-03</internalNodes>
      <leafValues>
        -2.6925531029701233e-01 4.5538562536239624e-01</leafValues></_>
    <_>
      <internalNodes>
        0 -1 5437120 -4.8388680443167686e-03</internalNodes>
      <leafValues>
        4.1617387533187866e-01 -3.3388611674308777e-01</leafValues></_>
    <_>
      <internalNodes>
        0 -1 2646247 -1.1842242442071438e-02</internalNodes>
      <leafValues>
        -7.9651021957397461e-01 1.8122221529483795e-01</leafValues></_>
    <_>
      <internalNodes>
        0 -1 5751377 2.4204645305871964e-03</internalNodes>
      <leafValues>
        -3.6192199587821960e-01 4.0745258331298828e-01</leafValues></_></weakClassifiers></stage3>
</opencv_storage>
