<?xml version="1.0"?>
<opencv_storage>
<stage14>
  <maxWeakCount>10</maxWeakCount>
  <stageThreshold>-7.9434388875961304e-01</stageThreshold>
  <weakClassifiers>
    <_>
      <internalNodes>
        0 -1 4648604 -1.8660260830074549e-03</internalNodes>
      <leafValues>
        6.4705884456634521e-01 -2.4022346735000610e-01</leafValues></_>
    <_>
      <internalNodes>
        0 -1 879865 2.3361736908555031e-02</internalNodes>
      <leafValues>
        1.9222290813922882e-01 -6.7910009622573853e-01</leafValues></_>
    <_>
      <internalNodes>
        0 -1 3018051 -1.2277266010642052e-02</internalNodes>
      <leafValues>
        4.9874225258827209e-01 -2.5785332918167114e-01</leafValues></_>
    <_>
      <internalNodes>
        0 -1 1320847 3.5450283437967300e-02</internalNodes>
      <leafValues>
        1.7076520621776581e-01 -7.4548548460006714e-01</leafValues></_>
    <_>
      <internalNodes>
        0 -1 1998461 5.6577799841761589e-04</internalNodes>
      <leafValues>
        -2.7578178048133850e-01 5.0872206687927246e-01</leafValues></_>
    <_>
      <internalNodes>
        0 -1 1270743 5.3416111040860415e-04</internalNodes>
      <leafValues>
        -1.7203249037265778e-01 6.0800176858901978e-01</leafValues></_>
    <_>
      <internalNodes>
        0 -1 5957326 1.2501695891842246e-04</internalNodes>
      <leafValues>
        -2.6822754740715027e-01 5.1190906763076782e-01</leafValues></_>
    <_>
      <internalNodes>
        0 -1 6098461 9.1234808787703514e-03</internalNodes>
      <leafValues>
        2.1795512735843658e-01 -6.2862133979797363e-01</leafValues></_>
    <_>
      <internalNodes>
        0 -1 2712785 -1.4302087947726250e-03</internalNodes>
      <leafValues>
        -4.7010040283203125e-01 2.7178630232810974e-01</leafValues></_>
    <_>
      <internalNodes>
        0 -1 4566384 -2.5125948013737798e-04</internalNodes>
      <leafValues>
        5.3956210613250732e-01 -2.5178754329681396e-01</leafValues></_></weakClassifiers></stage14>
</opencv_storage>
