<?xml version="1.0"?>
<opencv_storage>
<stage9>
  <maxWeakCount>10</maxWeakCount>
  <stageThreshold>-8.5807400941848755e-01</stageThreshold>
  <weakClassifiers>
    <_>
      <internalNodes>
        0 -1 1582393 -5.8435764163732529e-02</internalNodes>
      <leafValues>
        6.2758618593215942e-01 -3.5238096117973328e-01</leafValues></_>
    <_>
      <internalNodes>
        0 -1 4124 -9.4759622588753700e-03</internalNodes>
      <leafValues>
        -6.3084107637405396e-01 2.4685409665107727e-01</leafValues></_>
    <_>
      <internalNodes>
        0 -1 2471920 4.9160821363329887e-03</internalNodes>
      <leafValues>
        -1.9942307472229004e-01 7.4855458736419678e-01</leafValues></_>
    <_>
      <internalNodes>
        0 -1 4913854 6.9898087531328201e-04</internalNodes>
      <leafValues>
        -1.8705792725086212e-01 6.7022496461868286e-01</leafValues></_>
    <_>
      <internalNodes>
        0 -1 3320699 -1.6249450854957104e-03</internalNodes>
      <leafValues>
        3.1811174750328064e-01 -4.2157140374183655e-01</leafValues></_>
    <_>
      <internalNodes>
        0 -1 7622 -5.7093761861324310e-03</internalNodes>
      <leafValues>
        -5.0343495607376099e-01 2.5289705395698547e-01</leafValues></_>
    <_>
      <internalNodes>
        0 -1 3172021 -4.1877590119838715e-03</internalNodes>
      <leafValues>
        5.0356924533843994e-01 -2.6057252287864685e-01</leafValues></_>
    <_>
      <internalNodes>
        0 -1 4402732 -5.5201351642608643e-03</internalNodes>
      <leafValues>
        -6.6861164569854736e-01 1.8175631761550903e-01</leafValues></_>
    <_>
      <internalNodes>
        0 -1 4377348 -9.6312240930274129e-04</internalNodes>
      <leafValues>
        7.0868128538131714e-01 -2.0865508913993835e-01</leafValues></_>
    <_>
      <internalNodes>
        0 -1 2941233 3.1119026243686676e-03</internalNodes>
      <leafValues>
        2.0076428353786469e-01 -8.0309915542602539e-01</leafValues></_></weakClassifiers></stage9>
</opencv_storage>
