<?xml version="1.0"?>
<opencv_storage>
<stage16>
  <maxWeakCount>12</maxWeakCount>
  <stageThreshold>-8.0254179239273071e-01</stageThreshold>
  <weakClassifiers>
    <_>
      <internalNodes>
        0 -1 2925883 5.0048418343067169e-03</internalNodes>
      <leafValues>
        1.5492957830429077e-01 -7.1428573131561279e-01</leafValues></_>
    <_>
      <internalNodes>
        0 -1 1293109 1.2130284681916237e-02</internalNodes>
      <leafValues>
        -3.1411105394363403e-01 3.7879517674446106e-01</leafValues></_>
    <_>
      <internalNodes>
        0 -1 1521126 -4.3876916170120239e-03</internalNodes>
      <leafValues>
        -5.3598225116729736e-01 2.2443790733814240e-01</leafValues></_>
    <_>
      <internalNodes>
        0 -1 1926406 8.6428801296278834e-04</internalNodes>
      <leafValues>
        -1.7005105316638947e-01 7.0979917049407959e-01</leafValues></_>
    <_>
      <internalNodes>
        0 -1 3449720 -1.4331297948956490e-02</internalNodes>
      <leafValues>
        3.3322688937187195e-01 -3.7379479408264160e-01</leafValues></_>
    <_>
      <internalNodes>
        0 -1 3621950 -2.0462293177843094e-03</internalNodes>
      <leafValues>
        5.4125458002090454e-01 -2.0793323218822479e-01</leafValues></_>
    <_>
      <internalNodes>
        0 -1 3759846 -6.5916012972593307e-03</internalNodes>
      <leafValues>
        4.2454332113265991e-01 -2.8541097044944763e-01</leafValues></_>
    <_>
      <internalNodes>
        0 -1 3620052 -7.0823766291141510e-03</internalNodes>
      <leafValues>
        -6.9658327102661133e-01 1.5630705654621124e-01</leafValues></_>
    <_>
      <internalNodes>
        0 -1 4035402 2.6858402416110039e-03</internalNodes>
      <leafValues>
        2.2190123796463013e-01 -6.2257021665573120e-01</leafValues></_>
    <_>
      <internalNodes>
        0 -1 1080674 -2.4474659585393965e-04</internalNodes>
      <leafValues>
        3.6368593573570251e-01 -3.7260103225708008e-01</leafValues></_>
    <_>
      <internalNodes>
        0 -1 818313 -5.5903974920511246e-02</internalNodes>
      <leafValues>
        8.2771372795104980e-01 -1.6336472332477570e-01</leafValues></_>
    <_>
      <internalNodes>
        0 -1 4933727 2.4338407092727721e-04</internalNodes>
      <leafValues>
        -1.5671275556087494e-01 6.9137394428253174e-01</leafValues></_></weakClassifiers></stage16>
</opencv_storage>
