<?xml version="1.0"?>
<opencv_storage>
<stage23>
  <maxWeakCount>7</maxWeakCount>
  <stageThreshold>-5.7006400823593140e-01</stageThreshold>
  <weakClassifiers>
    <_>
      <internalNodes>
        0 -1 2171555 -6.3671424868516624e-05</internalNodes>
      <leafValues>
        -4.3529412150382996e-01 4.4390243291854858e-01</leafValues></_>
    <_>
      <internalNodes>
        0 -1 1550543 -3.8880849024280906e-04</internalNodes>
      <leafValues>
        7.1028411388397217e-01 -2.9608231782913208e-01</leafValues></_>
    <_>
      <internalNodes>
        0 -1 2836915 -3.2201826572418213e-02</internalNodes>
      <leafValues>
        7.3630797863006592e-01 -2.5120925903320312e-01</leafValues></_>
    <_>
      <internalNodes>
        0 -1 3434712 -3.8009900599718094e-03</internalNodes>
      <leafValues>
        7.0680499076843262e-01 -2.9777437448501587e-01</leafValues></_>
    <_>
      <internalNodes>
        0 -1 96266 -4.4001451897202060e-05</internalNodes>
      <leafValues>
        6.7369282245635986e-01 -3.5477945208549500e-01</leafValues></_>
    <_>
      <internalNodes>
        0 -1 3459701 2.4738968932069838e-04</internalNodes>
      <leafValues>
        4.9107781052589417e-01 -4.7689852118492126e-01</leafValues></_>
    <_>
      <internalNodes>
        0 -1 1268334 5.3143291734158993e-04</internalNodes>
      <leafValues>
        -3.2473975419998169e-01 7.9998099803924561e-01</leafValues></_></weakClassifiers></stage23>
</opencv_storage>
