<?xml version="1.0"?>
<opencv_storage>
<cascade>
  <stageType>BOOST</stageType>
  <featureType>HAAR</featureType>
  <height>40</height>
  <width>40</width>
  <stageParams>
    <boostType>GAB</boostType>
    <minHitRate>9.9900001287460327e-01</minHitRate>
    <maxFalseAlarm>5.0000000000000000e-01</maxFalseAlarm>
    <weightTrimRate>9.4999999999999996e-01</weightTrimRate>
    <maxDepth>1</maxDepth>
    <maxWeakCount>100</maxWeakCount></stageParams>
  <featureParams>
    <maxCatCount>0</maxCatCount>
    <featSize>1</featSize>
    <mode>ALL</mode></featureParams>
  <stageNum>15</stageNum>
  <stages>
    <!-- stage 0 -->
    <_>
      <maxWeakCount>7</maxWeakCount>
      <stageThreshold>-9.9908953905105591e-01</stageThreshold>
      <weakClassifiers>
        <_>
          <internalNodes>
            0 -1 79 3.7376500666141510e-02</internalNodes>
          <leafValues>
            -5.5852842330932617e-01 9.1304349899291992e-01</leafValues></_>
        <_>
          <internalNodes>
            0 -1 41 3.8498815149068832e-02</internalNodes>
          <leafValues>
            -2.2513358294963837e-01 7.2209233045578003e-01</leafValues></_>
        <_>
          <internalNodes>
            0 -1 88 -3.6481407005339861e-04</internalNodes>
          <leafValues>
            7.7026724815368652e-01 -2.0918536186218262e-01</leafValues></_>
        <_>
          <internalNodes>
            0 -1 142 -8.1267701461911201e-03</internalNodes>
          <leafValues>
            -6.0255485773086548e-01 3.4486374258995056e-01</leafValues></_>
        <_>
          <internalNodes>
            0 -1 109 -1.9868546223733574e-04</internalNodes>
          <leafValues>
            7.2551178932189941e-01 -3.0001115798950195e-01</leafValues></_>
        <_>
          <internalNodes>
            0 -1 9 1.6866895020939410e-04</internalNodes>
          <leafValues>
            -2.5982487201690674e-01 6.5432208776473999e-01</leafValues></_>
        <_>
          <internalNodes>
            0 -1 121 1.7814949154853821e-02</internalNodes>
          <leafValues>
            2.9490593075752258e-01 -7.0541679859161377e-01</leafValues></_></weakClassifiers></_>
    <!-- stage 1 -->
    <_>
      <maxWeakCount>8</maxWeakCount>
      <stageThreshold>-8.1904596090316772e-01</stageThreshold>
      <weakClassifiers>
        <_>
          <internalNodes>
            0 -1 82 1.2747347354888916e-02</internalNodes>
          <leafValues>
            -5.4054051637649536e-01 8.5365855693817139e-01</leafValues></_>
        <_>
          <internalNodes>
            0 -1 21 5.5675640702247620e-02</internalNodes>
          <leafValues>
            -2.7061504125595093e-01 6.7040282487869263e-01</leafValues></_>
        <_>
          <internalNodes>
            0 -1 88 -3.5067831049673259e-04</internalNodes>
          <leafValues>
            7.2066694498062134e-01 -2.1476604044437408e-01</leafValues></_>
        <_>
          <internalNodes>
            0 -1 105 1.5406150487251580e-04</internalNodes>
          <leafValues>
            -3.0565682053565979e-01 5.6189537048339844e-01</leafValues></_>
        <_>
          <internalNodes>
            0 -1 84 -1.5839254483580589e-03</internalNodes>
          <leafValues>
            7.3684585094451904e-01 -2.5628021359443665e-01</leafValues></_>
        <_>
          <internalNodes>
            0 -1 146 -3.4242129186168313e-04</internalNodes>
          <leafValues>
            6.9685554504394531e-01 -2.4032115936279297e-01</leafValues></_>
        <_>
          <internalNodes>
            0 -1 127 2.4775805650278926e-04</internalNodes>
          <leafValues>
            -3.9106413722038269e-01 4.4569423794746399e-01</leafValues></_>
        <_>
          <internalNodes>
            0 -1 32 5.6380202295258641e-04</internalNodes>
          <leafValues>
            -3.0411261320114136e-01 5.8791756629943848e-01</leafValues></_></weakClassifiers></_>
    <!-- stage 2 -->
    <_>
      <maxWeakCount>12</maxWeakCount>
      <stageThreshold>-9.1828626394271851e-01</stageThreshold>
      <weakClassifiers>
        <_>
          <internalNodes>
            0 -1 96 2.4581220932304859e-03</internalNodes>
          <leafValues>
            -4.5098039507865906e-01 7.6623374223709106e-01</leafValues></_>
        <_>
          <internalNodes>
            0 -1 67 1.2069380842149258e-02</internalNodes>
          <leafValues>
            2.7208146452903748e-01 -5.5810821056365967e-01</leafValues></_>
        <_>
          <internalNodes>
            0 -1 101 -6.2115350738167763e-04</internalNodes>
          <leafValues>
            8.3376961946487427e-01 -1.6783459484577179e-01</leafValues></_>
        <_>
          <internalNodes>
            0 -1 70 2.8421235037967563e-04</internalNodes>
          <leafValues>
            -2.4903944134712219e-01 5.9841537475585938e-01</leafValues></_>
        <_>
          <internalNodes>
            0 -1 115 -2.5520548224449158e-03</internalNodes>
          <leafValues>
            -6.6672915220260620e-01 2.1703651547431946e-01</leafValues></_>
        <_>
          <internalNodes>
            0 -1 83 -1.6684565343894064e-04</internalNodes>
          <leafValues>
            5.6713253259658813e-01 -2.7435147762298584e-01</leafValues></_>
        <_>
          <internalNodes>
            0 -1 40 -3.6844835267402232e-04</internalNodes>
          <leafValues>
            6.4358341693878174e-01 -1.8869538605213165e-01</leafValues></_>
        <_>
          <internalNodes>
            0 -1 137 -2.8726414893753827e-04</internalNodes>
          <leafValues>
            5.7361578941345215e-01 -2.0774695277214050e-01</leafValues></_>
        <_>
          <internalNodes>
            0 -1 151 -2.8447126969695091e-03</internalNodes>
          <leafValues>
            -9.0195667743682861e-01 1.6790956258773804e-01</leafValues></_>
        <_>
          <internalNodes>
            0 -1 147 -1.6015220899134874e-04</internalNodes>
          <leafValues>
            4.3933558464050293e-01 -3.4067770838737488e-01</leafValues></_>
        <_>
          <internalNodes>
            0 -1 36 5.2775990217924118e-02</internalNodes>
          <leafValues>
            -1.9467775523662567e-01 6.7473965883255005e-01</leafValues></_>
        <_>
          <internalNodes>
            0 -1 117 -2.4066539481282234e-04</internalNodes>
          <leafValues>
            5.4751682281494141e-01 -2.6500934362411499e-01</leafValues></_></weakClassifiers></_>
    <!-- stage 3 -->
    <_>
      <maxWeakCount>7</maxWeakCount>
      <stageThreshold>-6.7832893133163452e-01</stageThreshold>
      <weakClassifiers>
        <_>
          <internalNodes>
            0 -1 85 2.8527030721306801e-02</internalNodes>
          <leafValues>
            -3.7764349579811096e-01 8.1395345926284790e-01</leafValues></_>
        <_>
          <internalNodes>
            0 -1 58 9.3666519969701767e-03</internalNodes>
          <leafValues>
            2.9867532849311829e-01 -6.1620944738388062e-01</leafValues></_>
        <_>
          <internalNodes>
            0 -1 34 -1.2281919771339744e-04</internalNodes>
          <leafValues>
            2.8068155050277710e-01 -5.3173863887786865e-01</leafValues></_>
        <_>
          <internalNodes>
            0 -1 49 -4.0361564606428146e-03</internalNodes>
          <leafValues>
            -5.1419806480407715e-01 2.7236825227737427e-01</leafValues></_>
        <_>
          <internalNodes>
            0 -1 8 -3.7455928395502269e-04</internalNodes>
          <leafValues>
            5.9240454435348511e-01 -2.4856761097908020e-01</leafValues></_>
        <_>
          <internalNodes>
            0 -1 63 -6.2420489266514778e-03</internalNodes>
          <leafValues>
            -9.2146682739257812e-01 1.9086715579032898e-01</leafValues></_>
        <_>
          <internalNodes>
            0 -1 10 2.4854455841705203e-04</internalNodes>
          <leafValues>
            -2.8228995203971863e-01 5.2710115909576416e-01</leafValues></_></weakClassifiers></_>
    <!-- stage 4 -->
    <_>
      <maxWeakCount>10</maxWeakCount>
      <stageThreshold>-7.6335060596466064e-01</stageThreshold>
      <weakClassifiers>
        <_>
          <internalNodes>
            0 -1 89 1.2020597234368324e-02</internalNodes>
          <leafValues>
            -4.0789473056793213e-01 6.6666668653488159e-01</leafValues></_>
        <_>
          <internalNodes>
            0 -1 15 2.5444310158491135e-02</internalNodes>
          <leafValues>
            -3.3285221457481384e-01 3.6861661076545715e-01</leafValues></_>
        <_>
          <internalNodes>
            0 -1 81 1.4728419482707977e-02</internalNodes>
          <leafValues>
            1.6422320902347565e-01 -8.4495204687118530e-01</leafValues></_>
        <_>
          <internalNodes>
            0 -1 78 7.2539653629064560e-03</internalNodes>
          <leafValues>
            1.8238855898380280e-01 -5.3007608652114868e-01</leafValues></_>
        <_>
          <internalNodes>
            0 -1 102 -6.7241571843624115e-02</internalNodes>
          <leafValues>
            5.6857150793075562e-01 -2.0343688130378723e-01</leafValues></_>
        <_>
          <internalNodes>
            0 -1 31 1.8397795502096415e-03</internalNodes>
          <leafValues>
            -1.7373347282409668e-01 6.9153326749801636e-01</leafValues></_>
        <_>
          <internalNodes>
            0 -1 59 6.5811621025204659e-03</internalNodes>
          <leafValues>
            1.4946696162223816e-01 -8.2386112213134766e-01</leafValues></_>
        <_>
          <internalNodes>
            0 -1 64 -3.5781858605332673e-04</internalNodes>
          <leafValues>
            6.5726095438003540e-01 -1.8315909802913666e-01</leafValues></_>
        <_>
          <internalNodes>
            0 -1 47 4.1833834256976843e-04</internalNodes>
          <leafValues>
            3.1692770123481750e-01 -4.0826523303985596e-01</leafValues></_>
        <_>
          <internalNodes>
            0 -1 45 -3.6238756729289889e-04</internalNodes>
          <leafValues>
            5.9196352958679199e-01 -2.5155651569366455e-01</leafValues></_></weakClassifiers></_>
    <!-- stage 5 -->
    <_>
      <maxWeakCount>13</maxWeakCount>
      <stageThreshold>-8.1029880046844482e-01</stageThreshold>
      <weakClassifiers>
        <_>
          <internalNodes>
            0 -1 100 -2.5505828671157360e-03</internalNodes>
          <leafValues>
            8.9010989665985107e-01 -2.7371272444725037e-01</leafValues></_>
        <_>
          <internalNodes>
            0 -1 51 5.2448421716690063e-02</internalNodes>
          <leafValues>
            -2.7256822586059570e-01 4.1791146993637085e-01</leafValues></_>
        <_>
          <internalNodes>
            0 -1 77 -3.6693544825538993e-04</internalNodes>
          <leafValues>
            6.2554979324340820e-01 -1.6848492622375488e-01</leafValues></_>
        <_>
          <internalNodes>
            0 -1 18 -2.9435945907607675e-04</internalNodes>
          <leafValues>
            3.0579492449760437e-01 -3.4600448608398438e-01</leafValues></_>
        <_>
          <internalNodes>
            0 -1 43 3.3099565189331770e-04</internalNodes>
          <leafValues>
            -2.4971565604209900e-01 5.3134852647781372e-01</leafValues></_>
        <_>
          <internalNodes>
            0 -1 118 -2.2695535153616220e-04</internalNodes>
          <leafValues>
            3.5014128684997559e-01 -3.3006227016448975e-01</leafValues></_>
        <_>
          <internalNodes>
            0 -1 145 2.3381976643577218e-04</internalNodes>
          <leafValues>
            -1.6633023321628571e-01 5.9591490030288696e-01</leafValues></_>
        <_>
          <internalNodes>
            0 -1 150 3.0913387308828533e-04</internalNodes>
          <leafValues>
            -1.9368702173233032e-01 5.8499979972839355e-01</leafValues></_>
        <_>
          <internalNodes>
            0 -1 125 -8.0247167497873306e-03</internalNodes>
          <leafValues>
            -7.5197863578796387e-01 1.6850613057613373e-01</leafValues></_>
        <_>
          <internalNodes>
            0 -1 28 -1.9700836390256882e-02</internalNodes>
          <leafValues>
            -7.7593177556991577e-01 1.5928223729133606e-01</leafValues></_>
        <_>
          <internalNodes>
            0 -1 113 2.4582215701229870e-04</internalNodes>
          <leafValues>
            -2.2916029393672943e-01 6.2788945436477661e-01</leafValues></_>
        <_>
          <internalNodes>
            0 -1 5 1.7477236688137054e-02</internalNodes>
          <leafValues>
            1.6773855686187744e-01 -8.4412473440170288e-01</leafValues></_>
        <_>
          <internalNodes>
            0 -1 134 -1.2577726738527417e-04</internalNodes>
          <leafValues>
            4.0022379159927368e-01 -3.6516860127449036e-01</leafValues></_></weakClassifiers></_>
    <!-- stage 6 -->
    <_>
      <maxWeakCount>11</maxWeakCount>
      <stageThreshold>-9.6478730440139771e-01</stageThreshold>
      <weakClassifiers>
        <_>
          <internalNodes>
            0 -1 79 3.7276193499565125e-02</internalNodes>
          <leafValues>
            -4.8235294222831726e-01 5.0243902206420898e-01</leafValues></_>
        <_>
          <internalNodes>
            0 -1 101 -1.0114556644111872e-03</internalNodes>
          <leafValues>
            8.5836172103881836e-01 -1.4827571809291840e-01</leafValues></_>
        <_>
          <internalNodes>
            0 -1 111 4.4630188494920731e-03</internalNodes>
          <leafValues>
            2.0328560471534729e-01 -6.2353587150573730e-01</leafValues></_>
        <_>
          <internalNodes>
            0 -1 35 2.2631487250328064e-01</internalNodes>
          <leafValues>
            -2.3179118335247040e-01 5.7356154918670654e-01</leafValues></_>
        <_>
          <internalNodes>
            0 -1 1 1.0617373045533895e-03</internalNodes>
          <leafValues>
            -1.8504653871059418e-01 5.2603554725646973e-01</leafValues></_>
        <_>
          <internalNodes>
            0 -1 140 4.2749528074637055e-04</internalNodes>
          <leafValues>
            -2.7587532997131348e-01 4.0189847350120544e-01</leafValues></_>
        <_>
          <internalNodes>
            0 -1 128 1.9131109002046287e-04</internalNodes>
          <leafValues>
            -2.5774571299552917e-01 4.1602623462677002e-01</leafValues></_>
        <_>
          <internalNodes>
            0 -1 42 5.9467134997248650e-03</internalNodes>
          <leafValues>
            1.9710814952850342e-01 -7.5263649225234985e-01</leafValues></_>
        <_>
          <internalNodes>
            0 -1 107 1.1305103544145823e-03</internalNodes>
          <leafValues>
            -3.3616054058074951e-01 3.3557128906250000e-01</leafValues></_>
        <_>
          <internalNodes>
            0 -1 114 2.6565033476799726e-03</internalNodes>
          <leafValues>
            2.2580195963382721e-01 -4.7883635759353638e-01</leafValues></_>
        <_>
          <internalNodes>
            0 -1 12 1.9891554489731789e-02</internalNodes>
          <leafValues>
            -3.5150888562202454e-01 2.9776471853256226e-01</leafValues></_></weakClassifiers></_>
    <!-- stage 7 -->
    <_>
      <maxWeakCount>11</maxWeakCount>
      <stageThreshold>-7.7859252691268921e-01</stageThreshold>
      <weakClassifiers>
        <_>
          <internalNodes>
            0 -1 90 1.6118398634716868e-03</internalNodes>
          <leafValues>
            -3.3532935380935669e-01 7.3015874624252319e-01</leafValues></_>
        <_>
          <internalNodes>
            0 -1 110 -3.0041784048080444e-02</internalNodes>
          <leafValues>
            6.1641055345535278e-01 -1.5212689340114594e-01</leafValues></_>
        <_>
          <internalNodes>
            0 -1 108 -3.1166400760412216e-02</internalNodes>
          <leafValues>
            -8.5728508234024048e-01 1.0501046478748322e-01</leafValues></_>
        <_>
          <internalNodes>
            0 -1 76 4.0355413220822811e-03</internalNodes>
          <leafValues>
            1.1859277635812759e-01 -7.8910869359970093e-01</leafValues></_>
        <_>
          <internalNodes>
            0 -1 139 3.2047586864791811e-04</internalNodes>
          <leafValues>
            -1.9485987722873688e-01 5.0189137458801270e-01</leafValues></_>
        <_>
          <internalNodes>
            0 -1 60 3.2716281712055206e-02</internalNodes>
          <leafValues>
            1.8410213291645050e-01 -6.1488580703735352e-01</leafValues></_>
        <_>
          <internalNodes>
            0 -1 56 -2.8952141292393208e-03</internalNodes>
          <leafValues>
            3.0622699856758118e-01 -3.6942109465599060e-01</leafValues></_>
        <_>
          <internalNodes>
            0 -1 75 -6.1304271221160889e-03</internalNodes>
          <leafValues>
            -7.3527741432189941e-01 1.9344224035739899e-01</leafValues></_>
        <_>
          <internalNodes>
            0 -1 7 2.3200183641165495e-03</internalNodes>
          <leafValues>
            -2.4213595688343048e-01 4.5145657658576965e-01</leafValues></_>
        <_>
          <internalNodes>
            0 -1 72 2.3393421433866024e-03</internalNodes>
          <leafValues>
            2.2794817388057709e-01 -4.9183577299118042e-01</leafValues></_>
        <_>
          <internalNodes>
            0 -1 69 -3.1679210951551795e-04</internalNodes>
          <leafValues>
            4.3980750441551208e-01 -2.6967930793762207e-01</leafValues></_></weakClassifiers></_>
    <!-- stage 8 -->
    <_>
      <maxWeakCount>11</maxWeakCount>
      <stageThreshold>-1.2084275484085083e+00</stageThreshold>
      <weakClassifiers>
        <_>
          <internalNodes>
            0 -1 91 1.0916967876255512e-03</internalNodes>
          <leafValues>
            -3.1901839375495911e-01 6.2686568498611450e-01</leafValues></_>
        <_>
          <internalNodes>
            0 -1 104 -2.1290648728609085e-02</internalNodes>
          <leafValues>
            6.5125674009323120e-01 -1.7312477529048920e-01</leafValues></_>
        <_>
          <internalNodes>
            0 -1 68 -9.8475199192762375e-03</internalNodes>
          <leafValues>
            -6.6131162643432617e-01 1.5373387932777405e-01</leafValues></_>
        <_>
          <internalNodes>
            0 -1 131 -3.0376925133168697e-03</internalNodes>
          <leafValues>
            4.7165349125862122e-01 -2.7172860503196716e-01</leafValues></_>
        <_>
          <internalNodes>
            0 -1 25 -6.4420717535540462e-04</internalNodes>
          <leafValues>
            5.6506526470184326e-01 -1.8351995944976807e-01</leafValues></_>
        <_>
          <internalNodes>
            0 -1 44 -3.8599990308284760e-02</internalNodes>
          <leafValues>
            6.1951583623886108e-01 -1.8798898160457611e-01</leafValues></_>
        <_>
          <internalNodes>
            0 -1 11 -3.7705763243138790e-03</internalNodes>
          <leafValues>
            -8.6918109655380249e-01 1.4430427551269531e-01</leafValues></_>
        <_>
          <internalNodes>
            0 -1 87 8.5854844655841589e-04</internalNodes>
          <leafValues>
            2.6112848520278931e-01 -5.0509285926818848e-01</leafValues></_>
        <_>
          <internalNodes>
            0 -1 136 -2.4827342713251710e-04</internalNodes>
          <leafValues>
            5.5709499120712280e-01 -2.4851055443286896e-01</leafValues></_>
        <_>
          <internalNodes>
            0 -1 27 -4.4816135778091848e-04</internalNodes>
          <leafValues>
            5.6933188438415527e-01 -2.2637474536895752e-01</leafValues></_>
        <_>
          <internalNodes>
            0 -1 13 -1.2473527749534696e-04</internalNodes>
          <leafValues>
            5.9857076406478882e-01 -1.9671237468719482e-01</leafValues></_></weakClassifiers></_>
    <!-- stage 9 -->
    <_>
      <maxWeakCount>11</maxWeakCount>
      <stageThreshold>-7.9758423566818237e-01</stageThreshold>
      <weakClassifiers>
        <_>
          <internalNodes>
            0 -1 80 -2.6335213333368301e-02</internalNodes>
          <leafValues>
            7.8021979331970215e-01 -2.4661245942115784e-01</leafValues></_>
        <_>
          <internalNodes>
            0 -1 55 -4.3338835239410400e-03</internalNodes>
          <leafValues>
            4.7350817918777466e-01 -1.8992921710014343e-01</leafValues></_>
        <_>
          <internalNodes>
            0 -1 33 2.7797825168818235e-04</internalNodes>
          <leafValues>
            -1.9671626389026642e-01 6.1683881282806396e-01</leafValues></_>
        <_>
          <internalNodes>
            0 -1 141 8.6716637015342712e-03</internalNodes>
          <leafValues>
            1.4017954468727112e-01 -8.4541511535644531e-01</leafValues></_>
        <_>
          <internalNodes>
            0 -1 6 4.0942292660474777e-02</internalNodes>
          <leafValues>
            1.5982408821582794e-01 -7.7285188436508179e-01</leafValues></_>
        <_>
          <internalNodes>
            0 -1 2 2.9477612115442753e-03</internalNodes>
          <leafValues>
            -3.4294176101684570e-01 3.1713896989822388e-01</leafValues></_>
        <_>
          <internalNodes>
            0 -1 0 -1.9050899427384138e-03</internalNodes>
          <leafValues>
            -4.7381821274757385e-01 3.2598546147346497e-01</leafValues></_>
        <_>
          <internalNodes>
            0 -1 138 1.1852853931486607e-03</internalNodes>
          <leafValues>
            -2.6047456264495850e-01 5.6733363866806030e-01</leafValues></_>
        <_>
          <internalNodes>
            0 -1 149 5.5685995903331786e-05</internalNodes>
          <leafValues>
            -2.9483097791671753e-01 4.2533528804779053e-01</leafValues></_>
        <_>
          <internalNodes>
            0 -1 152 5.1433830522000790e-03</internalNodes>
          <leafValues>
            3.1842806935310364e-01 -5.0547534227371216e-01</leafValues></_>
        <_>
          <internalNodes>
            0 -1 61 4.9997079186141491e-03</internalNodes>
          <leafValues>
            1.2536607682704926e-01 -8.2454639673233032e-01</leafValues></_></weakClassifiers></_>
    <!-- stage 10 -->
    <_>
      <maxWeakCount>9</maxWeakCount>
      <stageThreshold>-7.7065801620483398e-01</stageThreshold>
      <weakClassifiers>
        <_>
          <internalNodes>
            0 -1 65 8.4820121526718140e-02</internalNodes>
          <leafValues>
            -3.6734694242477417e-01 5.3012049198150635e-01</leafValues></_>
        <_>
          <internalNodes>
            0 -1 46 3.1589926220476627e-04</internalNodes>
          <leafValues>
            -1.7538730800151825e-01 7.7545785903930664e-01</leafValues></_>
        <_>
          <internalNodes>
            0 -1 30 -1.1655271053314209e-02</internalNodes>
          <leafValues>
            -6.3897669315338135e-01 1.8942363560199738e-01</leafValues></_>
        <_>
          <internalNodes>
            0 -1 73 -1.6732949006836861e-04</internalNodes>
          <leafValues>
            4.8425561189651489e-01 -2.4998994171619415e-01</leafValues></_>
        <_>
          <internalNodes>
            0 -1 123 4.2248764075338840e-03</internalNodes>
          <leafValues>
            2.7063059806823730e-01 -4.8970064520835876e-01</leafValues></_>
        <_>
          <internalNodes>
            0 -1 53 1.5784904826432467e-04</internalNodes>
          <leafValues>
            -2.9818305373191833e-01 4.5623838901519775e-01</leafValues></_>
        <_>
          <internalNodes>
            0 -1 98 -5.7313975412398577e-04</internalNodes>
          <leafValues>
            6.5403044223785400e-01 -1.7300742864608765e-01</leafValues></_>
        <_>
          <internalNodes>
            0 -1 135 -1.3300399295985699e-03</internalNodes>
          <leafValues>
            -3.3144423365592957e-01 3.8169819116592407e-01</leafValues></_>
        <_>
          <internalNodes>
            0 -1 74 6.1171338893473148e-04</internalNodes>
          <leafValues>
            -3.1886160373687744e-01 4.5880135893821716e-01</leafValues></_></weakClassifiers></_>
    <!-- stage 11 -->
    <_>
      <maxWeakCount>14</maxWeakCount>
      <stageThreshold>-8.0115878582000732e-01</stageThreshold>
      <weakClassifiers>
        <_>
          <internalNodes>
            0 -1 90 2.2295117378234863e-03</internalNodes>
          <leafValues>
            -2.5555557012557983e-01 7.2000002861022949e-01</leafValues></_>
        <_>
          <internalNodes>
            0 -1 3 -1.9898833124898374e-04</internalNodes>
          <leafValues>
            3.2764694094657898e-01 -2.7531647682189941e-01</leafValues></_>
        <_>
          <internalNodes>
            0 -1 144 6.4526742789894342e-05</internalNodes>
          <leafValues>
            -3.2803636789321899e-01 3.1763976812362671e-01</leafValues></_>
        <_>
          <internalNodes>
            0 -1 143 3.2901548547670245e-04</internalNodes>
          <leafValues>
            -1.3247562944889069e-01 6.0268968343734741e-01</leafValues></_>
        <_>
          <internalNodes>
            0 -1 133 1.1521253036335111e-03</internalNodes>
          <leafValues>
            -1.7894795536994934e-01 5.7679253816604614e-01</leafValues></_>
        <_>
          <internalNodes>
            0 -1 93 8.5545725596603006e-05</internalNodes>
          <leafValues>
            3.6679089069366455e-01 -3.0918467044830322e-01</leafValues></_>
        <_>
          <internalNodes>
            0 -1 14 1.0549502447247505e-02</internalNodes>
          <leafValues>
            -2.3470567166805267e-01 4.8595556616783142e-01</leafValues></_>
        <_>
          <internalNodes>
            0 -1 38 2.2808723151683807e-03</internalNodes>
          <leafValues>
            -1.5588124096393585e-01 8.9513689279556274e-01</leafValues></_>
        <_>
          <internalNodes>
            0 -1 124 -7.3414654470980167e-03</internalNodes>
          <leafValues>
            5.2042043209075928e-01 -1.8520653247833252e-01</leafValues></_>
        <_>
          <internalNodes>
            0 -1 23 -8.6638284847140312e-04</internalNodes>
          <leafValues>
            3.5376638174057007e-01 -3.3770570158958435e-01</leafValues></_>
        <_>
          <internalNodes>
            0 -1 4 1.3336160918697715e-04</internalNodes>
          <leafValues>
            -2.4169312417507172e-01 5.5413281917572021e-01</leafValues></_>
        <_>
          <internalNodes>
            0 -1 29 -2.9314542189240456e-04</internalNodes>
          <leafValues>
            6.1976212263107300e-01 -2.0476262271404266e-01</leafValues></_>
        <_>
          <internalNodes>
            0 -1 26 -1.1896942742168903e-03</internalNodes>
          <leafValues>
            4.8674532771110535e-01 -2.8116926550865173e-01</leafValues></_>
        <_>
          <internalNodes>
            0 -1 50 -4.1027655242942274e-04</internalNodes>
          <leafValues>
            3.4938478469848633e-01 -3.5655599832534790e-01</leafValues></_></weakClassifiers></_>
    <!-- stage 12 -->
    <_>
      <maxWeakCount>11</maxWeakCount>
      <stageThreshold>-8.3214223384857178e-01</stageThreshold>
      <weakClassifiers>
        <_>
          <internalNodes>
            0 -1 100 -2.5421786122024059e-03</internalNodes>
          <leafValues>
            6.0747665166854858e-01 -2.4079319834709167e-01</leafValues></_>
        <_>
          <internalNodes>
            0 -1 95 -9.3095200136303902e-03</internalNodes>
          <leafValues>
            5.1844191551208496e-01 -1.6532826423645020e-01</leafValues></_>
        <_>
          <internalNodes>
            0 -1 129 2.8797248378396034e-03</internalNodes>
          <leafValues>
            2.5239336490631104e-01 -4.7437116503715515e-01</leafValues></_>
        <_>
          <internalNodes>
            0 -1 92 -7.8928293660283089e-03</internalNodes>
          <leafValues>
            -7.2750842571258545e-01 1.7954391241073608e-01</leafValues></_>
        <_>
          <internalNodes>
            0 -1 39 1.5084804035723209e-03</internalNodes>
          <leafValues>
            1.9348981976509094e-01 -5.7387864589691162e-01</leafValues></_>
        <_>
          <internalNodes>
            0 -1 148 -9.3177566304802895e-04</internalNodes>
          <leafValues>
            4.9818372726440430e-01 -2.6297605037689209e-01</leafValues></_>
        <_>
          <internalNodes>
            0 -1 54 2.3053772747516632e-04</internalNodes>
          <leafValues>
            -1.8456172943115234e-01 5.4430454969406128e-01</leafValues></_>
        <_>
          <internalNodes>
            0 -1 120 -3.0721753137186170e-04</internalNodes>
          <leafValues>
            5.2892285585403442e-01 -2.4322681128978729e-01</leafValues></_>
        <_>
          <internalNodes>
            0 -1 103 9.5273032784461975e-03</internalNodes>
          <leafValues>
            1.5609975159168243e-01 -8.6851984262466431e-01</leafValues></_>
        <_>
          <internalNodes>
            0 -1 17 -1.3657405506819487e-03</internalNodes>
          <leafValues>
            6.4568674564361572e-01 -1.9299148023128510e-01</leafValues></_>
        <_>
          <internalNodes>
            0 -1 132 3.3659324981272221e-03</internalNodes>
          <leafValues>
            1.1455909162759781e-01 -9.0676528215408325e-01</leafValues></_></weakClassifiers></_>
    <!-- stage 13 -->
    <_>
      <maxWeakCount>14</maxWeakCount>
      <stageThreshold>-6.2541764974594116e-01</stageThreshold>
      <weakClassifiers>
        <_>
          <internalNodes>
            0 -1 52 3.9428047835826874e-02</internalNodes>
          <leafValues>
            -4.3362832069396973e-01 3.3333334326744080e-01</leafValues></_>
        <_>
          <internalNodes>
            0 -1 57 1.7238114029169083e-02</internalNodes>
          <leafValues>
            2.0097979903221130e-01 -5.0230950117111206e-01</leafValues></_>
        <_>
          <internalNodes>
            0 -1 97 1.6288150800392032e-03</internalNodes>
          <leafValues>
            -1.5245817601680756e-01 5.4885506629943848e-01</leafValues></_>
        <_>
          <internalNodes>
            0 -1 122 -1.4455532655119896e-02</internalNodes>
          <leafValues>
            7.2760224342346191e-01 -1.3413931429386139e-01</leafValues></_>
        <_>
          <internalNodes>
            0 -1 112 -1.4493876369670033e-03</internalNodes>
          <leafValues>
            -5.5590134859085083e-01 1.6115503013134003e-01</leafValues></_>
        <_>
          <internalNodes>
            0 -1 130 -1.1637264396995306e-03</internalNodes>
          <leafValues>
            4.7842642664909363e-01 -2.0963731408119202e-01</leafValues></_>
        <_>
          <internalNodes>
            0 -1 154 -1.8471883959136903e-04</internalNodes>
          <leafValues>
            -3.1977152824401855e-01 3.1790363788604736e-01</leafValues></_>
        <_>
          <internalNodes>
            0 -1 48 -9.7401142120361328e-03</internalNodes>
          <leafValues>
            -7.5777828693389893e-01 1.1525151878595352e-01</leafValues></_>
        <_>
          <internalNodes>
            0 -1 94 1.3985572149977088e-04</internalNodes>
          <leafValues>
            -2.3066471517086029e-01 4.3427765369415283e-01</leafValues></_>
        <_>
          <internalNodes>
            0 -1 119 -1.8945189658552408e-03</internalNodes>
          <leafValues>
            6.6026800870895386e-01 -1.4330035448074341e-01</leafValues></_>
        <_>
          <internalNodes>
            0 -1 106 -2.5988975539803505e-03</internalNodes>
          <leafValues>
            4.2299446463584900e-01 -2.3140914738178253e-01</leafValues></_>
        <_>
          <internalNodes>
            0 -1 66 -4.9487121403217316e-02</internalNodes>
          <leafValues>
            5.3648132085800171e-01 -1.9076856970787048e-01</leafValues></_>
        <_>
          <internalNodes>
            0 -1 16 -1.7451366875320673e-04</internalNodes>
          <leafValues>
            5.1963782310485840e-01 -1.9414593279361725e-01</leafValues></_>
        <_>
          <internalNodes>
            0 -1 71 3.3629253506660461e-02</internalNodes>
          <leafValues>
            -1.6549813747406006e-01 6.7138534784317017e-01</leafValues></_></weakClassifiers></_>
    <!-- stage 14 -->
    <_>
      <maxWeakCount>11</maxWeakCount>
      <stageThreshold>-1.0639348030090332e+00</stageThreshold>
      <weakClassifiers>
        <_>
          <internalNodes>
            0 -1 99 -3.5495902411639690e-03</internalNodes>
          <leafValues>
            6.6315788030624390e-01 -2.2739726305007935e-01</leafValues></_>
        <_>
          <internalNodes>
            0 -1 20 -3.7061830516904593e-04</internalNodes>
          <leafValues>
            6.6408991813659668e-01 -1.2473070621490479e-01</leafValues></_>
        <_>
          <internalNodes>
            0 -1 24 -1.3765478506684303e-02</internalNodes>
          <leafValues>
            -7.1792656183242798e-01 1.4391830563545227e-01</leafValues></_>
        <_>
          <internalNodes>
            0 -1 126 5.3574959747493267e-04</internalNodes>
          <leafValues>
            -2.4867343902587891e-01 3.6790198087692261e-01</leafValues></_>
        <_>
          <internalNodes>
            0 -1 37 -4.0008332580327988e-03</internalNodes>
          <leafValues>
            -5.6333577632904053e-01 1.8795594573020935e-01</leafValues></_>
        <_>
          <internalNodes>
            0 -1 22 -1.8697279738262296e-03</internalNodes>
          <leafValues>
            5.1099169254302979e-01 -2.2961820662021637e-01</leafValues></_>
        <_>
          <internalNodes>
            0 -1 62 -1.2888393830507994e-03</internalNodes>
          <leafValues>
            4.9197155237197876e-01 -2.0243808627128601e-01</leafValues></_>
        <_>
          <internalNodes>
            0 -1 153 -7.6411629561334848e-04</internalNodes>
          <leafValues>
            4.2123588919639587e-01 -2.7207309007644653e-01</leafValues></_>
        <_>
          <internalNodes>
            0 -1 19 -7.5400422792881727e-04</internalNodes>
          <leafValues>
            5.0805521011352539e-01 -2.6227664947509766e-01</leafValues></_>
        <_>
          <internalNodes>
            0 -1 86 -2.7256959583610296e-04</internalNodes>
          <leafValues>
            3.4974598884582520e-01 -3.2459393143653870e-01</leafValues></_>
        <_>
          <internalNodes>
            0 -1 116 8.0186908598989248e-04</internalNodes>
          <leafValues>
            -2.5984656810760498e-01 4.4421473145484924e-01</leafValues></_></weakClassifiers></_></stages>
  <features>
    <_>
      <rects>
        <_>
          0 0 16 38 -1.</_>
        <_>
          8 0 8 38 2.</_></rects>
      <tilted>0</tilted></_>
    <_>
      <rects>
        <_>
          0 13 2 20 -1.</_>
        <_>
          0 13 1 10 2.</_>
        <_>
          1 23 1 10 2.</_></rects>
      <tilted>0</tilted></_>
    <_>
      <rects>
        <_>
          1 4 37 8 -1.</_>
        <_>
          1 6 37 4 2.</_></rects>
      <tilted>0</tilted></_>
    <_>
      <rects>
        <_>
          1 15 5 8 -1.</_>
        <_>
          1 17 5 4 2.</_></rects>
      <tilted>0</tilted></_>
    <_>
      <rects>
        <_>
          1 21 2 2 -1.</_>
        <_>
          1 21 1 1 2.</_>
        <_>
          2 22 1 1 2.</_></rects>
      <tilted>0</tilted></_>
    <_>
      <rects>
        <_>
          1 21 39 8 -1.</_>
        <_>
          1 23 39 4 2.</_></rects>
      <tilted>0</tilted></_>
    <_>
      <rects>
        <_>
          1 34 26 6 -1.</_>
        <_>
          14 34 13 6 2.</_></rects>
      <tilted>0</tilted></_>
    <_>
      <rects>
        <_>
          2 2 6 9 -1.</_>
        <_>
          4 2 2 9 3.</_></rects>
      <tilted>0</tilted></_>
    <_>
      <rects>
        <_>
          2 5 3 1 -1.</_>
        <_>
          3 5 1 1 3.</_></rects>
      <tilted>0</tilted></_>
    <_>
      <rects>
        <_>
          2 8 2 2 -1.</_>
        <_>
          2 8 1 1 2.</_>
        <_>
          3 9 1 1 2.</_></rects>
      <tilted>0</tilted></_>
    <_>
      <rects>
        <_>
          2 9 1 4 -1.</_>
        <_>
          2 10 1 2 2.</_></rects>
      <tilted>0</tilted></_>
    <_>
      <rects>
        <_>
          2 29 2 9 -1.</_>
        <_>
          2 32 2 3 3.</_></rects>
      <tilted>0</tilted></_>
    <_>
      <rects>
        <_>
          3 0 28 3 -1.</_>
        <_>
          10 7 14 3 2.</_></rects>
      <tilted>1</tilted></_>
    <_>
      <rects>
        <_>
          3 12 2 1 -1.</_>
        <_>
          4 12 1 1 2.</_></rects>
      <tilted>0</tilted></_>
    <_>
      <rects>
        <_>
          3 18 30 1 -1.</_>
        <_>
          13 18 10 1 3.</_></rects>
      <tilted>0</tilted></_>
    <_>
      <rects>
        <_>
          4 0 28 4 -1.</_>
        <_>
          11 7 14 4 2.</_></rects>
      <tilted>1</tilted></_>
    <_>
      <rects>
        <_>
          4 1 2 2 -1.</_>
        <_>
          4 1 1 1 2.</_>
        <_>
          5 2 1 1 2.</_></rects>
      <tilted>0</tilted></_>
    <_>
      <rects>
        <_>
          4 2 5 3 -1.</_>
        <_>
          4 3 5 1 3.</_></rects>
      <tilted>0</tilted></_>
    <_>
      <rects>
        <_>
          4 3 8 3 -1.</_>
        <_>
          6 3 4 3 2.</_></rects>
      <tilted>0</tilted></_>
    <_>
      <rects>
        <_>
          4 5 2 14 -1.</_>
        <_>
          4 5 1 7 2.</_>
        <_>
          5 12 1 7 2.</_></rects>
      <tilted>0</tilted></_>
    <_>
      <rects>
        <_>
          4 7 2 2 -1.</_>
        <_>
          4 7 1 1 2.</_>
        <_>
          5 8 1 1 2.</_></rects>
      <tilted>0</tilted></_>
    <_>
      <rects>
        <_>
          4 16 30 7 -1.</_>
        <_>
          14 16 10 7 3.</_></rects>
      <tilted>0</tilted></_>
    <_>
      <rects>
        <_>
          5 1 3 14 -1.</_>
        <_>
          6 1 1 14 3.</_></rects>
      <tilted>0</tilted></_>
    <_>
      <rects>
        <_>
          5 1 6 9 -1.</_>
        <_>
          7 4 2 3 9.</_></rects>
      <tilted>0</tilted></_>
    <_>
      <rects>
        <_>
          5 2 7 15 -1.</_>
        <_>
          5 7 7 5 3.</_></rects>
      <tilted>0</tilted></_>
    <_>
      <rects>
        <_>
          5 4 2 3 -1.</_>
        <_>
          5 4 1 3 2.</_></rects>
      <tilted>1</tilted></_>
    <_>
      <rects>
        <_>
          5 5 3 3 -1.</_>
        <_>
          6 6 1 1 9.</_></rects>
      <tilted>0</tilted></_>
    <_>
      <rects>
        <_>
          5 6 4 1 -1.</_>
        <_>
          6 6 2 1 2.</_></rects>
      <tilted>0</tilted></_>
    <_>
      <rects>
        <_>
          5 6 15 12 -1.</_>
        <_>
          5 10 15 4 3.</_></rects>
      <tilted>0</tilted></_>
    <_>
      <rects>
        <_>
          5 25 4 1 -1.</_>
        <_>
          6 25 2 1 2.</_></rects>
      <tilted>0</tilted></_>
    <_>
      <rects>
        <_>
          6 1 23 10 -1.</_>
        <_>
          6 6 23 5 2.</_></rects>
      <tilted>0</tilted></_>
    <_>
      <rects>
        <_>
          6 25 3 10 -1.</_>
        <_>
          7 25 1 10 3.</_></rects>
      <tilted>0</tilted></_>
    <_>
      <rects>
        <_>
          7 1 3 3 -1.</_>
        <_>
          8 2 1 1 9.</_></rects>
      <tilted>0</tilted></_>
    <_>
      <rects>
        <_>
          7 6 2 1 -1.</_>
        <_>
          8 6 1 1 2.</_></rects>
      <tilted>0</tilted></_>
    <_>
      <rects>
        <_>
          7 7 15 2 -1.</_>
        <_>
          12 12 5 2 3.</_></rects>
      <tilted>1</tilted></_>
    <_>
      <rects>
        <_>
          7 13 30 27 -1.</_>
        <_>
          17 22 10 9 9.</_></rects>
      <tilted>0</tilted></_>
    <_>
      <rects>
        <_>
          7 18 21 6 -1.</_>
        <_>
          14 20 7 2 9.</_></rects>
      <tilted>0</tilted></_>
    <_>
      <rects>
        <_>
          7 20 3 6 -1.</_>
        <_>
          7 20 3 3 2.</_></rects>
      <tilted>1</tilted></_>
    <_>
      <rects>
        <_>
          8 2 5 3 -1.</_>
        <_>
          8 3 5 1 3.</_></rects>
      <tilted>0</tilted></_>
    <_>
      <rects>
        <_>
          8 3 14 1 -1.</_>
        <_>
          8 3 7 1 2.</_></rects>
      <tilted>1</tilted></_>
    <_>
      <rects>
        <_>
          8 10 1 3 -1.</_>
        <_>
          8 11 1 1 3.</_></rects>
      <tilted>0</tilted></_>
    <_>
      <rects>
        <_>
          8 17 24 6 -1.</_>
        <_>
          16 19 8 2 9.</_></rects>
      <tilted>0</tilted></_>
    <_>
      <rects>
        <_>
          8 17 16 4 -1.</_>
        <_>
          7 18 16 2 2.</_></rects>
      <tilted>1</tilted></_>
    <_>
      <rects>
        <_>
          8 35 1 3 -1.</_>
        <_>
          8 36 1 1 3.</_></rects>
      <tilted>0</tilted></_>
    <_>
      <rects>
        <_>
          9 22 18 12 -1.</_>
        <_>
          15 26 6 4 9.</_></rects>
      <tilted>0</tilted></_>
    <_>
      <rects>
        <_>
          9 36 3 2 -1.</_>
        <_>
          10 36 1 2 3.</_></rects>
      <tilted>0</tilted></_>
    <_>
      <rects>
        <_>
          10 15 2 2 -1.</_>
        <_>
          10 15 1 1 2.</_>
        <_>
          11 16 1 1 2.</_></rects>
      <tilted>0</tilted></_>
    <_>
      <rects>
        <_>
          10 17 12 3 -1.</_>
        <_>
          14 18 4 1 9.</_></rects>
      <tilted>0</tilted></_>
    <_>
      <rects>
        <_>
          10 19 16 6 -1.</_>
        <_>
          10 21 16 2 3.</_></rects>
      <tilted>0</tilted></_>
    <_>
      <rects>
        <_>
          11 1 13 12 -1.</_>
        <_>
          11 7 13 6 2.</_></rects>
      <tilted>0</tilted></_>
    <_>
      <rects>
        <_>
          11 2 12 1 -1.</_>
        <_>
          15 6 4 1 3.</_></rects>
      <tilted>1</tilted></_>
    <_>
      <rects>
        <_>
          11 6 24 8 -1.</_>
        <_>
          17 12 12 8 2.</_></rects>
      <tilted>1</tilted></_>
    <_>
      <rects>
        <_>
          11 9 20 8 -1.</_>
        <_>
          16 14 10 8 2.</_></rects>
      <tilted>1</tilted></_>
    <_>
      <rects>
        <_>
          11 17 1 3 -1.</_>
        <_>
          11 18 1 1 3.</_></rects>
      <tilted>0</tilted></_>
    <_>
      <rects>
        <_>
          11 31 2 2 -1.</_>
        <_>
          11 31 1 1 2.</_>
        <_>
          12 32 1 1 2.</_></rects>
      <tilted>0</tilted></_>
    <_>
      <rects>
        <_>
          12 4 12 3 -1.</_>
        <_>
          16 5 4 1 9.</_></rects>
      <tilted>0</tilted></_>
    <_>
      <rects>
        <_>
          12 7 20 7 -1.</_>
        <_>
          17 7 10 7 2.</_></rects>
      <tilted>0</tilted></_>
    <_>
      <rects>
        <_>
          12 15 19 12 -1.</_>
        <_>
          12 19 19 4 3.</_></rects>
      <tilted>0</tilted></_>
    <_>
      <rects>
        <_>
          12 17 25 8 -1.</_>
        <_>
          12 19 25 4 2.</_></rects>
      <tilted>0</tilted></_>
    <_>
      <rects>
        <_>
          12 18 4 6 -1.</_>
        <_>
          10 20 4 2 3.</_></rects>
      <tilted>1</tilted></_>
    <_>
      <rects>
        <_>
          13 3 19 9 -1.</_>
        <_>
          10 6 19 3 3.</_></rects>
      <tilted>1</tilted></_>
    <_>
      <rects>
        <_>
          13 16 11 4 -1.</_>
        <_>
          12 17 11 2 2.</_></rects>
      <tilted>1</tilted></_>
    <_>
      <rects>
        <_>
          13 25 2 9 -1.</_>
        <_>
          13 28 2 3 3.</_></rects>
      <tilted>0</tilted></_>
    <_>
      <rects>
        <_>
          14 2 7 8 -1.</_>
        <_>
          14 4 7 4 2.</_></rects>
      <tilted>0</tilted></_>
    <_>
      <rects>
        <_>
          14 3 2 2 -1.</_>
        <_>
          14 3 1 1 2.</_>
        <_>
          15 4 1 1 2.</_></rects>
      <tilted>0</tilted></_>
    <_>
      <rects>
        <_>
          14 9 18 7 -1.</_>
        <_>
          20 15 6 7 3.</_></rects>
      <tilted>1</tilted></_>
    <_>
      <rects>
        <_>
          14 20 16 16 -1.</_>
        <_>
          14 28 16 8 2.</_></rects>
      <tilted>0</tilted></_>
    <_>
      <rects>
        <_>
          14 21 26 11 -1.</_>
        <_>
          27 21 13 11 2.</_></rects>
      <tilted>0</tilted></_>
    <_>
      <rects>
        <_>
          14 25 7 8 -1.</_>
        <_>
          14 29 7 4 2.</_></rects>
      <tilted>0</tilted></_>
    <_>
      <rects>
        <_>
          14 29 2 3 -1.</_>
        <_>
          14 30 2 1 3.</_></rects>
      <tilted>0</tilted></_>
    <_>
      <rects>
        <_>
          14 30 3 1 -1.</_>
        <_>
          15 30 1 1 3.</_></rects>
      <tilted>0</tilted></_>
    <_>
      <rects>
        <_>
          15 9 5 26 -1.</_>
        <_>
          15 22 5 13 2.</_></rects>
      <tilted>0</tilted></_>
    <_>
      <rects>
        <_>
          15 28 17 6 -1.</_>
        <_>
          15 31 17 3 2.</_></rects>
      <tilted>0</tilted></_>
    <_>
      <rects>
        <_>
          15 33 1 2 -1.</_>
        <_>
          15 34 1 1 2.</_></rects>
      <tilted>0</tilted></_>
    <_>
      <rects>
        <_>
          16 7 4 20 -1.</_>
        <_>
          17 7 2 20 2.</_></rects>
      <tilted>0</tilted></_>
    <_>
      <rects>
        <_>
          16 17 9 6 -1.</_>
        <_>
          16 19 9 2 3.</_></rects>
      <tilted>0</tilted></_>
    <_>
      <rects>
        <_>
          16 21 4 3 -1.</_>
        <_>
          15 22 4 1 3.</_></rects>
      <tilted>1</tilted></_>
    <_>
      <rects>
        <_>
          16 30 1 3 -1.</_>
        <_>
          16 31 1 1 3.</_></rects>
      <tilted>0</tilted></_>
    <_>
      <rects>
        <_>
          17 8 8 12 -1.</_>
        <_>
          17 12 8 4 3.</_></rects>
      <tilted>0</tilted></_>
    <_>
      <rects>
        <_>
          17 12 6 15 -1.</_>
        <_>
          19 17 2 5 9.</_></rects>
      <tilted>0</tilted></_>
    <_>
      <rects>
        <_>
          17 13 6 14 -1.</_>
        <_>
          17 13 3 7 2.</_>
        <_>
          20 20 3 7 2.</_></rects>
      <tilted>0</tilted></_>
    <_>
      <rects>
        <_>
          17 14 16 8 -1.</_>
        <_>
          17 16 16 4 2.</_></rects>
      <tilted>0</tilted></_>
    <_>
      <rects>
        <_>
          17 15 9 2 -1.</_>
        <_>
          20 18 3 2 3.</_></rects>
      <tilted>1</tilted></_>
    <_>
      <rects>
        <_>
          17 17 2 2 -1.</_>
        <_>
          17 17 1 1 2.</_>
        <_>
          18 18 1 1 2.</_></rects>
      <tilted>0</tilted></_>
    <_>
      <rects>
        <_>
          17 17 3 3 -1.</_>
        <_>
          18 18 1 1 9.</_></rects>
      <tilted>0</tilted></_>
    <_>
      <rects>
        <_>
          17 17 6 6 -1.</_>
        <_>
          19 19 2 2 9.</_></rects>
      <tilted>0</tilted></_>
    <_>
      <rects>
        <_>
          17 33 6 1 -1.</_>
        <_>
          19 35 2 1 3.</_></rects>
      <tilted>1</tilted></_>
    <_>
      <rects>
        <_>
          18 3 3 15 -1.</_>
        <_>
          18 8 3 5 3.</_></rects>
      <tilted>0</tilted></_>
    <_>
      <rects>
        <_>
          18 14 3 1 -1.</_>
        <_>
          19 14 1 1 3.</_></rects>
      <tilted>0</tilted></_>
    <_>
      <rects>
        <_>
          18 16 6 2 -1.</_>
        <_>
          20 18 2 2 3.</_></rects>
      <tilted>1</tilted></_>
    <_>
      <rects>
        <_>
          18 19 4 1 -1.</_>
        <_>
          19 19 2 1 2.</_></rects>
      <tilted>0</tilted></_>
    <_>
      <rects>
        <_>
          18 19 2 2 -1.</_>
        <_>
          19 19 1 2 2.</_></rects>
      <tilted>0</tilted></_>
    <_>
      <rects>
        <_>
          18 20 16 8 -1.</_>
        <_>
          18 20 8 4 2.</_>
        <_>
          26 24 8 4 2.</_></rects>
      <tilted>0</tilted></_>
    <_>
      <rects>
        <_>
          18 21 3 8 -1.</_>
        <_>
          19 21 1 8 3.</_></rects>
      <tilted>0</tilted></_>
    <_>
      <rects>
        <_>
          18 38 2 2 -1.</_>
        <_>
          18 38 1 1 2.</_>
        <_>
          19 39 1 1 2.</_></rects>
      <tilted>0</tilted></_>
    <_>
      <rects>
        <_>
          19 5 9 3 -1.</_>
        <_>
          22 8 3 3 3.</_></rects>
      <tilted>1</tilted></_>
    <_>
      <rects>
        <_>
          19 17 4 1 -1.</_>
        <_>
          20 18 2 1 2.</_></rects>
      <tilted>1</tilted></_>
    <_>
      <rects>
        <_>
          19 17 1 4 -1.</_>
        <_>
          19 19 1 2 2.</_></rects>
      <tilted>0</tilted></_>
    <_>
      <rects>
        <_>
          19 17 3 2 -1.</_>
        <_>
          20 17 1 2 3.</_></rects>
      <tilted>0</tilted></_>
    <_>
      <rects>
        <_>
          19 17 2 6 -1.</_>
        <_>
          19 17 1 3 2.</_>
        <_>
          20 20 1 3 2.</_></rects>
      <tilted>0</tilted></_>
    <_>
      <rects>
        <_>
          19 18 2 4 -1.</_>
        <_>
          19 18 1 2 2.</_>
        <_>
          20 20 1 2 2.</_></rects>
      <tilted>0</tilted></_>
    <_>
      <rects>
        <_>
          19 19 2 2 -1.</_>
        <_>
          19 19 1 1 2.</_>
        <_>
          20 20 1 1 2.</_></rects>
      <tilted>0</tilted></_>
    <_>
      <rects>
        <_>
          20 3 10 34 -1.</_>
        <_>
          20 20 10 17 2.</_></rects>
      <tilted>0</tilted></_>
    <_>
      <rects>
        <_>
          20 14 20 2 -1.</_>
        <_>
          30 14 10 2 2.</_></rects>
      <tilted>0</tilted></_>
    <_>
      <rects>
        <_>
          20 15 4 14 -1.</_>
        <_>
          20 22 4 7 2.</_></rects>
      <tilted>0</tilted></_>
    <_>
      <rects>
        <_>
          20 20 2 2 -1.</_>
        <_>
          20 20 1 1 2.</_>
        <_>
          21 21 1 1 2.</_></rects>
      <tilted>0</tilted></_>
    <_>
      <rects>
        <_>
          21 1 16 3 -1.</_>
        <_>
          25 1 8 3 2.</_></rects>
      <tilted>0</tilted></_>
    <_>
      <rects>
        <_>
          21 2 4 4 -1.</_>
        <_>
          21 2 4 2 2.</_></rects>
      <tilted>1</tilted></_>
    <_>
      <rects>
        <_>
          21 16 18 2 -1.</_>
        <_>
          27 22 6 2 3.</_></rects>
      <tilted>1</tilted></_>
    <_>
      <rects>
        <_>
          21 27 2 2 -1.</_>
        <_>
          21 27 1 1 2.</_>
        <_>
          22 28 1 1 2.</_></rects>
      <tilted>0</tilted></_>
    <_>
      <rects>
        <_>
          22 11 4 24 -1.</_>
        <_>
          22 23 4 12 2.</_></rects>
      <tilted>0</tilted></_>
    <_>
      <rects>
        <_>
          22 32 13 6 -1.</_>
        <_>
          22 35 13 3 2.</_></rects>
      <tilted>0</tilted></_>
    <_>
      <rects>
        <_>
          23 1 3 4 -1.</_>
        <_>
          22 2 3 2 2.</_></rects>
      <tilted>1</tilted></_>
    <_>
      <rects>
        <_>
          23 12 2 2 -1.</_>
        <_>
          23 12 1 1 2.</_>
        <_>
          24 13 1 1 2.</_></rects>
      <tilted>0</tilted></_>
    <_>
      <rects>
        <_>
          23 17 6 4 -1.</_>
        <_>
          22 18 6 2 2.</_></rects>
      <tilted>1</tilted></_>
    <_>
      <rects>
        <_>
          23 25 6 3 -1.</_>
        <_>
          26 25 3 3 2.</_></rects>
      <tilted>0</tilted></_>
    <_>
      <rects>
        <_>
          24 20 6 2 -1.</_>
        <_>
          24 20 6 1 2.</_></rects>
      <tilted>1</tilted></_>
    <_>
      <rects>
        <_>
          24 34 3 1 -1.</_>
        <_>
          25 34 1 1 3.</_></rects>
      <tilted>0</tilted></_>
    <_>
      <rects>
        <_>
          25 0 8 4 -1.</_>
        <_>
          25 0 8 2 2.</_></rects>
      <tilted>1</tilted></_>
    <_>
      <rects>
        <_>
          25 6 3 6 -1.</_>
        <_>
          26 6 1 6 3.</_></rects>
      <tilted>0</tilted></_>
    <_>
      <rects>
        <_>
          25 13 3 1 -1.</_>
        <_>
          26 13 1 1 3.</_></rects>
      <tilted>0</tilted></_>
    <_>
      <rects>
        <_>
          26 3 14 24 -1.</_>
        <_>
          33 3 7 24 2.</_></rects>
      <tilted>0</tilted></_>
    <_>
      <rects>
        <_>
          26 22 9 6 -1.</_>
        <_>
          24 24 9 2 3.</_></rects>
      <tilted>1</tilted></_>
    <_>
      <rects>
        <_>
          27 0 8 13 -1.</_>
        <_>
          31 0 4 13 2.</_></rects>
      <tilted>0</tilted></_>
    <_>
      <rects>
        <_>
          27 2 2 20 -1.</_>
        <_>
          22 7 2 10 2.</_></rects>
      <tilted>1</tilted></_>
    <_>
      <rects>
        <_>
          27 13 6 23 -1.</_>
        <_>
          29 13 2 23 3.</_></rects>
      <tilted>0</tilted></_>
    <_>
      <rects>
        <_>
          27 28 3 6 -1.</_>
        <_>
          28 28 1 6 3.</_></rects>
      <tilted>0</tilted></_>
    <_>
      <rects>
        <_>
          27 29 3 10 -1.</_>
        <_>
          28 29 1 10 3.</_></rects>
      <tilted>0</tilted></_>
    <_>
      <rects>
        <_>
          27 39 3 1 -1.</_>
        <_>
          28 39 1 1 3.</_></rects>
      <tilted>0</tilted></_>
    <_>
      <rects>
        <_>
          28 12 2 13 -1.</_>
        <_>
          28 12 1 13 2.</_></rects>
      <tilted>1</tilted></_>
    <_>
      <rects>
        <_>
          28 28 2 12 -1.</_>
        <_>
          29 28 1 12 2.</_></rects>
      <tilted>0</tilted></_>
    <_>
      <rects>
        <_>
          29 14 2 10 -1.</_>
        <_>
          29 14 2 5 2.</_></rects>
      <tilted>1</tilted></_>
    <_>
      <rects>
        <_>
          29 19 3 8 -1.</_>
        <_>
          29 21 3 4 2.</_></rects>
      <tilted>0</tilted></_>
    <_>
      <rects>
        <_>
          29 27 3 10 -1.</_>
        <_>
          30 27 1 10 3.</_></rects>
      <tilted>0</tilted></_>
    <_>
      <rects>
        <_>
          29 30 2 3 -1.</_>
        <_>
          29 31 2 1 3.</_></rects>
      <tilted>0</tilted></_>
    <_>
      <rects>
        <_>
          32 5 3 28 -1.</_>
        <_>
          32 19 3 14 2.</_></rects>
      <tilted>0</tilted></_>
    <_>
      <rects>
        <_>
          33 0 2 2 -1.</_>
        <_>
          33 1 2 1 2.</_></rects>
      <tilted>0</tilted></_>
    <_>
      <rects>
        <_>
          33 8 2 4 -1.</_>
        <_>
          33 8 1 2 2.</_>
        <_>
          34 10 1 2 2.</_></rects>
      <tilted>0</tilted></_>
    <_>
      <rects>
        <_>
          33 15 3 6 -1.</_>
        <_>
          34 15 1 6 3.</_></rects>
      <tilted>0</tilted></_>
    <_>
      <rects>
        <_>
          33 20 3 1 -1.</_>
        <_>
          34 20 1 1 3.</_></rects>
      <tilted>0</tilted></_>
    <_>
      <rects>
        <_>
          33 34 3 3 -1.</_>
        <_>
          34 34 1 3 3.</_></rects>
      <tilted>0</tilted></_>
    <_>
      <rects>
        <_>
          34 4 6 17 -1.</_>
        <_>
          37 4 3 17 2.</_></rects>
      <tilted>0</tilted></_>
    <_>
      <rects>
        <_>
          34 20 6 20 -1.</_>
        <_>
          34 30 6 10 2.</_></rects>
      <tilted>0</tilted></_>
    <_>
      <rects>
        <_>
          34 26 4 1 -1.</_>
        <_>
          35 26 2 1 2.</_></rects>
      <tilted>0</tilted></_>
    <_>
      <rects>
        <_>
          34 31 1 2 -1.</_>
        <_>
          34 32 1 1 2.</_></rects>
      <tilted>0</tilted></_>
    <_>
      <rects>
        <_>
          34 33 3 1 -1.</_>
        <_>
          35 33 1 1 3.</_></rects>
      <tilted>0</tilted></_>
    <_>
      <rects>
        <_>
          35 17 3 1 -1.</_>
        <_>
          36 17 1 1 3.</_></rects>
      <tilted>0</tilted></_>
    <_>
      <rects>
        <_>
          35 19 2 2 -1.</_>
        <_>
          35 19 1 1 2.</_>
        <_>
          36 20 1 1 2.</_></rects>
      <tilted>0</tilted></_>
    <_>
      <rects>
        <_>
          36 26 3 7 -1.</_>
        <_>
          37 26 1 7 3.</_></rects>
      <tilted>0</tilted></_>
    <_>
      <rects>
        <_>
          36 28 1 2 -1.</_>
        <_>
          36 29 1 1 2.</_></rects>
      <tilted>0</tilted></_>
    <_>
      <rects>
        <_>
          36 29 3 1 -1.</_>
        <_>
          37 29 1 1 3.</_></rects>
      <tilted>0</tilted></_>
    <_>
      <rects>
        <_>
          37 21 3 8 -1.</_>
        <_>
          37 23 3 4 2.</_></rects>
      <tilted>0</tilted></_>
    <_>
      <rects>
        <_>
          38 1 2 27 -1.</_>
        <_>
          38 10 2 9 3.</_></rects>
      <tilted>0</tilted></_>
    <_>
      <rects>
        <_>
          38 2 1 16 -1.</_>
        <_>
          38 6 1 8 2.</_></rects>
      <tilted>0</tilted></_>
    <_>
      <rects>
        <_>
          39 12 1 8 -1.</_>
        <_>
          39 16 1 4 2.</_></rects>
      <tilted>0</tilted></_></features></cascade>
</opencv_storage>
