<?xml version="1.0"?>
<opencv_storage>
<stage3>
  <maxWeakCount>7</maxWeakCount>
  <stageThreshold>-6.7832893133163452e-01</stageThreshold>
  <weakClassifiers>
    <_>
      <internalNodes>
        0 -1 1282787 2.8527030721306801e-02</internalNodes>
      <leafValues>
        -3.7764349579811096e-01 8.1395345926284790e-01</leafValues></_>
    <_>
      <internalNodes>
        0 -1 958220 9.3666519969701767e-03</internalNodes>
      <leafValues>
        2.9867532849311829e-01 -6.1620944738388062e-01</leafValues></_>
    <_>
      <internalNodes>
        0 -1 569848 -1.2281919771339744e-04</internalNodes>
      <leafValues>
        2.8068155050277710e-01 -5.3173863887786865e-01</leafValues></_>
    <_>
      <internalNodes>
        0 -1 844599 -4.0361564606428146e-03</internalNodes>
      <leafValues>
        -5.1419806480407715e-01 2.7236825227737427e-01</leafValues></_>
    <_>
      <internalNodes>
        0 -1 177569 -3.7455928395502269e-04</internalNodes>
      <leafValues>
        5.9240454435348511e-01 -2.4856761097908020e-01</leafValues></_>
    <_>
      <internalNodes>
        0 -1 1053958 -6.2420489266514778e-03</internalNodes>
      <leafValues>
        -9.2146682739257812e-01 1.9086715579032898e-01</leafValues></_>
    <_>
      <internalNodes>
        0 -1 190456 2.4854455841705203e-04</internalNodes>
      <leafValues>
        -2.8228995203971863e-01 5.2710115909576416e-01</leafValues></_></weakClassifiers></stage3>
</opencv_storage>
