<?xml version="1.0"?>
<opencv_storage>
<stage4>
  <maxWeakCount>10</maxWeakCount>
  <stageThreshold>-7.6335060596466064e-01</stageThreshold>
  <weakClassifiers>
    <_>
      <internalNodes>
        0 -1 1341136 1.2020597234368324e-02</internalNodes>
      <leafValues>
        -4.0789473056793213e-01 6.6666668653488159e-01</leafValues></_>
    <_>
      <internalNodes>
        0 -1 316137 2.5444310158491135e-02</internalNodes>
      <leafValues>
        -3.3285221457481384e-01 3.6861661076545715e-01</leafValues></_>
    <_>
      <internalNodes>
        0 -1 1278578 1.4728419482707977e-02</internalNodes>
      <leafValues>
        1.6422320902347565e-01 -8.4495204687118530e-01</leafValues></_>
    <_>
      <internalNodes>
        0 -1 1264640 7.2539653629064560e-03</internalNodes>
      <leafValues>
        1.8238855898380280e-01 -5.3007608652114868e-01</leafValues></_>
    <_>
      <internalNodes>
        0 -1 1429110 -6.7241571843624115e-02</internalNodes>
      <leafValues>
        5.6857150793075562e-01 -2.0343688130378723e-01</leafValues></_>
    <_>
      <internalNodes>
        0 -1 534715 1.8397795502096415e-03</internalNodes>
      <leafValues>
        -1.7373347282409668e-01 6.9153326749801636e-01</leafValues></_>
    <_>
      <internalNodes>
        0 -1 958798 6.5811621025204659e-03</internalNodes>
      <leafValues>
        1.4946696162223816e-01 -8.2386112213134766e-01</leafValues></_>
    <_>
      <internalNodes>
        0 -1 1055649 -3.5781858605332673e-04</internalNodes>
      <leafValues>
        6.5726095438003540e-01 -1.8315909802913666e-01</leafValues></_>
    <_>
      <internalNodes>
        0 -1 816071 4.1833834256976843e-04</internalNodes>
      <leafValues>
        3.1692770123481750e-01 -4.0826523303985596e-01</leafValues></_>
    <_>
      <internalNodes>
        0 -1 765746 -3.6238756729289889e-04</internalNodes>
      <leafValues>
        5.9196352958679199e-01 -2.5155651569366455e-01</leafValues></_></weakClassifiers></stage4>
</opencv_storage>
