<?xml version="1.0"?>
<opencv_storage>
<stage0>
  <maxWeakCount>7</maxWeakCount>
  <stageThreshold>-9.9908953905105591e-01</stageThreshold>
  <weakClassifiers>
    <_>
      <internalNodes>
        0 -1 1272854 3.7376500666141510e-02</internalNodes>
      <leafValues>
        -5.5852842330932617e-01 9.1304349899291992e-01</leafValues></_>
    <_>
      <internalNodes>
        0 -1 671032 3.8498815149068832e-02</internalNodes>
      <leafValues>
        -2.2513358294963837e-01 7.2209233045578003e-01</leafValues></_>
    <_>
      <internalNodes>
        0 -1 1337037 -3.6481407005339861e-04</internalNodes>
      <leafValues>
        7.7026724815368652e-01 -2.0918536186218262e-01</leafValues></_>
    <_>
      <internalNodes>
        0 -1 1995227 -8.1267701461911201e-03</internalNodes>
      <leafValues>
        -6.0255485773086548e-01 3.4486374258995056e-01</leafValues></_>
    <_>
      <internalNodes>
        0 -1 1523337 -1.9868546223733574e-04</internalNodes>
      <leafValues>
        7.2551178932189941e-01 -3.0001115798950195e-01</leafValues></_>
    <_>
      <internalNodes>
        0 -1 187367 1.6866895020939410e-04</internalNodes>
      <leafValues>
        -2.5982487201690674e-01 6.5432208776473999e-01</leafValues></_>
    <_>
      <internalNodes>
        0 -1 1728173 1.7814949154853821e-02</internalNodes>
      <leafValues>
        2.9490593075752258e-01 -7.0541679859161377e-01</leafValues></_></weakClassifiers></stage0>
</opencv_storage>
