<?xml version="1.0"?>
<opencv_storage>
<stage7>
  <maxWeakCount>11</maxWeakCount>
  <stageThreshold>-7.7859252691268921e-01</stageThreshold>
  <weakClassifiers>
    <_>
      <internalNodes>
        0 -1 1346094 1.6118398634716868e-03</internalNodes>
      <leafValues>
        -3.3532935380935669e-01 7.3015874624252319e-01</leafValues></_>
    <_>
      <internalNodes>
        0 -1 1554421 -3.0041784048080444e-02</internalNodes>
      <leafValues>
        6.1641055345535278e-01 -1.5212689340114594e-01</leafValues></_>
    <_>
      <internalNodes>
        0 -1 1511091 -3.1166400760412216e-02</internalNodes>
      <leafValues>
        -8.5728508234024048e-01 1.0501046478748322e-01</leafValues></_>
    <_>
      <internalNodes>
        0 -1 1228324 4.0355413220822811e-03</internalNodes>
      <leafValues>
        1.1859277635812759e-01 -7.8910869359970093e-01</leafValues></_>
    <_>
      <internalNodes>
        0 -1 1974556 3.2047586864791811e-04</internalNodes>
      <leafValues>
        -1.9485987722873688e-01 5.0189137458801270e-01</leafValues></_>
    <_>
      <internalNodes>
        0 -1 991031 3.2716281712055206e-02</internalNodes>
      <leafValues>
        1.8410213291645050e-01 -6.1488580703735352e-01</leafValues></_>
    <_>
      <internalNodes>
        0 -1 932070 -2.8952141292393208e-03</internalNodes>
      <leafValues>
        3.0622699856758118e-01 -3.6942109465599060e-01</leafValues></_>
    <_>
      <internalNodes>
        0 -1 1222313 -6.1304271221160889e-03</internalNodes>
      <leafValues>
        -7.3527741432189941e-01 1.9344224035739899e-01</leafValues></_>
    <_>
      <internalNodes>
        0 -1 167101 2.3200183641165495e-03</internalNodes>
      <leafValues>
        -2.4213595688343048e-01 4.5145657658576965e-01</leafValues></_>
    <_>
      <internalNodes>
        0 -1 1172357 2.3393421433866024e-03</internalNodes>
      <leafValues>
        2.2794817388057709e-01 -4.9183577299118042e-01</leafValues></_>
    <_>
      <internalNodes>
        0 -1 1107925 -3.1679210951551795e-04</internalNodes>
      <leafValues>
        4.3980750441551208e-01 -2.6967930793762207e-01</leafValues></_></weakClassifiers></stage7>
</opencv_storage>
