<?xml version="1.0"?>
<opencv_storage>
<stage1>
  <maxWeakCount>10</maxWeakCount>
  <stageThreshold>-8.7548649311065674e-01</stageThreshold>
  <weakClassifiers>
    <_>
      <internalNodes>
        0 -1 13123398 2.4754053447395563e-03</internalNodes>
      <leafValues>
        -4.3859648704528809e-01 6.0000002384185791e-01</leafValues></_>
    <_>
      <internalNodes>
        0 -1 19611553 3.5935215419158340e-04</internalNodes>
      <leafValues>
        -2.3396028578281403e-01 5.5358725786209106e-01</leafValues></_>
    <_>
      <internalNodes>
        0 -1 19296957 9.7715397714637220e-05</internalNodes>
      <leafValues>
        -2.9814013838768005e-01 4.9462395906448364e-01</leafValues></_>
    <_>
      <internalNodes>
        0 -1 13968055 -4.1130352765321732e-03</internalNodes>
      <leafValues>
        -7.9679250717163086e-01 2.3888382315635681e-01</leafValues></_>
    <_>
      <internalNodes>
        0 -1 4008899 1.1338162585161626e-04</internalNodes>
      <leafValues>
        -1.8953630328178406e-01 7.3219472169876099e-01</leafValues></_>
    <_>
      <internalNodes>
        0 -1 8622475 -3.0419646645896137e-04</internalNodes>
      <leafValues>
        4.6215143799781799e-01 -3.0643185973167419e-01</leafValues></_>
    <_>
      <internalNodes>
        0 -1 14981184 8.7467939010821283e-05</internalNodes>
      <leafValues>
        -3.7954509258270264e-01 4.2092069983482361e-01</leafValues></_>
    <_>
      <internalNodes>
        0 -1 1124396 -1.6725134104490280e-02</internalNodes>
      <leafValues>
        -6.6126865148544312e-01 2.2718857228755951e-01</leafValues></_>
    <_>
      <internalNodes>
        0 -1 19386211 3.8115249481052160e-05</internalNodes>
      <leafValues>
        -3.0584871768951416e-01 6.2845963239669800e-01</leafValues></_>
    <_>
      <internalNodes>
        0 -1 16215940 8.1561710685491562e-03</internalNodes>
      <leafValues>
        2.8482896089553833e-01 -6.5547680854797363e-01</leafValues></_></weakClassifiers></stage1>
</opencv_storage>
