<?xml version="1.0"?>
<opencv_storage>
<stage2>
  <maxWeakCount>11</maxWeakCount>
  <stageThreshold>-1.0845563411712646e+00</stageThreshold>
  <weakClassifiers>
    <_>
      <internalNodes>
        0 -1 12843539 3.7253974005579948e-03</internalNodes>
      <leafValues>
        -3.9931741356849670e-01 5.8083832263946533e-01</leafValues></_>
    <_>
      <internalNodes>
        0 -1 14820350 -5.4638911038637161e-02</internalNodes>
      <leafValues>
        5.0704687833786011e-01 -2.4558222293853760e-01</leafValues></_>
    <_>
      <internalNodes>
        0 -1 14468082 1.4969368930906057e-04</internalNodes>
      <leafValues>
        -2.5326037406921387e-01 4.6126195788383484e-01</leafValues></_>
    <_>
      <internalNodes>
        0 -1 18780496 2.5952112628147006e-04</internalNodes>
      <leafValues>
        2.2656504809856415e-01 -5.4919821023941040e-01</leafValues></_>
    <_>
      <internalNodes>
        0 -1 17083128 -7.0959404110908508e-03</internalNodes>
      <leafValues>
        -7.1670210361480713e-01 2.0347093045711517e-01</leafValues></_>
    <_>
      <internalNodes>
        0 -1 18625262 1.0277598630636930e-04</internalNodes>
      <leafValues>
        -2.5866171717643738e-01 5.1795285940170288e-01</leafValues></_>
    <_>
      <internalNodes>
        0 -1 14981187 -3.0295061878859997e-04</internalNodes>
      <leafValues>
        6.2788569927215576e-01 -2.3591347038745880e-01</leafValues></_>
    <_>
      <internalNodes>
        0 -1 19658610 1.3388946535997093e-04</internalNodes>
      <leafValues>
        -2.6020875573158264e-01 5.6004643440246582e-01</leafValues></_>
    <_>
      <internalNodes>
        0 -1 19606824 5.1942060235887766e-04</internalNodes>
      <leafValues>
        2.6873856782913208e-01 -4.9259918928146362e-01</leafValues></_>
    <_>
      <internalNodes>
        0 -1 12250970 3.2574258511886001e-04</internalNodes>
      <leafValues>
        2.8095644712448120e-01 -5.2842384576797485e-01</leafValues></_>
    <_>
      <internalNodes>
        0 -1 1569363 3.1499390024691820e-04</internalNodes>
      <leafValues>
        -4.1134339570999146e-01 3.7618634104728699e-01</leafValues></_></weakClassifiers></stage2>
</opencv_storage>
