<?xml version="1.0"?>
<opencv_storage>
<stage9>
  <maxWeakCount>7</maxWeakCount>
  <stageThreshold>-5.8139300346374512e-01</stageThreshold>
  <weakClassifiers>
    <_>
      <internalNodes>
        0 -1 13592812 -2.2044371813535690e-02</internalNodes>
      <leafValues>
        7.7142858505249023e-01 -2.8450703620910645e-01</leafValues></_>
    <_>
      <internalNodes>
        0 -1 17797182 2.9954448109492660e-04</internalNodes>
      <leafValues>
        -3.1067010760307312e-01 4.9657094478607178e-01</leafValues></_>
    <_>
      <internalNodes>
        0 -1 13072873 -1.9143244717270136e-03</internalNodes>
      <leafValues>
        6.3543021678924561e-01 -2.6705151796340942e-01</leafValues></_>
    <_>
      <internalNodes>
        0 -1 7585177 -3.5875343019142747e-04</internalNodes>
      <leafValues>
        5.9027743339538574e-01 -2.5132158398628235e-01</leafValues></_>
    <_>
      <internalNodes>
        0 -1 17324418 -7.4005476199090481e-04</internalNodes>
      <leafValues>
        6.8578493595123291e-01 -2.2554911673069000e-01</leafValues></_>
    <_>
      <internalNodes>
        0 -1 3298480 -1.2779342010617256e-02</internalNodes>
      <leafValues>
        -6.3475626707077026e-01 2.7912363409996033e-01</leafValues></_>
    <_>
      <internalNodes>
        0 -1 17229083 2.3461587261408567e-05</internalNodes>
      <leafValues>
        -2.9570916295051575e-01 5.8522158861160278e-01</leafValues></_></weakClassifiers></stage9>
</opencv_storage>
