<?xml version="1.0"?>
<opencv_storage>
<stage6>
  <maxWeakCount>4</maxWeakCount>
  <stageThreshold>1.4374193549156189e-01</stageThreshold>
  <weakClassifiers>
    <_>
      <internalNodes>
        0 -1 372099 2143010283 -1347715093 -4194433 -1077944338
        2118115068 2147483647 -277168147 -537397283</internalNodes>
      <leafValues>
        -5.5087721347808838e-01 7.8285712003707886e-01</leafValues></_>
    <_>
      <internalNodes>
        0 -1 530638 1081418700 -1316986857 -2147200999 -1064169465
        -2063036279 1092747400 -2147477525 334387598</internalNodes>
      <leafValues>
        -6.6401845216751099e-01 6.8989145755767822e-01</leafValues></_>
    <_>
      <internalNodes>
        0 -1 247551 358453471 1493176449 537940036 1343295569 1094732680
        1216479240 268700066 -653678812</internalNodes>
      <leafValues>
        -6.5277105569839478e-01 7.8621220588684082e-01</leafValues></_>
    <_>
      <internalNodes>
        0 -1 596260 -1954582565 888668095 -33554483 -1620131969 -8490770
        -638650379 1073215358 -1531462161</internalNodes>
      <leafValues>
        -6.7623561620712280e-01 8.1530976295471191e-01</leafValues></_></weakClassifiers></stage6>
</opencv_storage>
