<?xml version="1.0"?>
<opencv_storage>
<cascade>
  <stageType>BOOST</stageType>
  <featureType>HAAR</featureType>
  <height>90</height>
  <width>90</width>
  <stageParams>
    <boostType>GAB</boostType>
    <minHitRate>9.9900001287460327e-01</minHitRate>
    <maxFalseAlarm>5.0000000000000000e-01</maxFalseAlarm>
    <weightTrimRate>9.4999999999999996e-01</weightTrimRate>
    <maxDepth>1</maxDepth>
    <maxWeakCount>100</maxWeakCount></stageParams>
  <featureParams>
    <maxCatCount>0</maxCatCount>
    <featSize>1</featSize>
    <mode>ALL</mode></featureParams>
  <stageNum>15</stageNum>
  <stages>
    <!-- stage 0 -->
    <_>
      <maxWeakCount>8</maxWeakCount>
      <stageThreshold>-1.0288940668106079e+00</stageThreshold>
      <weakClassifiers>
        <_>
          <internalNodes>
            0 -1 46 8.6310878396034241e-03</internalNodes>
          <leafValues>
            -4.5762711763381958e-01 6.9696968793869019e-01</leafValues></_>
        <_>
          <internalNodes>
            0 -1 4 -1.8925007316283882e-04</internalNodes>
          <leafValues>
            6.4382392168045044e-01 -2.0383790135383606e-01</leafValues></_>
        <_>
          <internalNodes>
            0 -1 7 2.8874646523036063e-04</internalNodes>
          <leafValues>
            -3.5532775521278381e-01 4.2661792039871216e-01</leafValues></_>
        <_>
          <internalNodes>
            0 -1 39 1.7526661395095289e-04</internalNodes>
          <leafValues>
            -2.6601225137710571e-01 5.1372689008712769e-01</leafValues></_>
        <_>
          <internalNodes>
            0 -1 43 2.2625513374805450e-03</internalNodes>
          <leafValues>
            -3.3624815940856934e-01 4.3911033868789673e-01</leafValues></_>
        <_>
          <internalNodes>
            0 -1 11 7.4765831232070923e-03</internalNodes>
          <leafValues>
            2.3878277838230133e-01 -7.4414342641830444e-01</leafValues></_>
        <_>
          <internalNodes>
            0 -1 94 4.4703774619847536e-04</internalNodes>
          <leafValues>
            -3.7144884467124939e-01 4.3387177586555481e-01</leafValues></_>
        <_>
          <internalNodes>
            0 -1 5 1.8086511408910155e-03</internalNodes>
          <leafValues>
            -2.2420394420623779e-01 7.6212799549102783e-01</leafValues></_></weakClassifiers></_>
    <!-- stage 1 -->
    <_>
      <maxWeakCount>7</maxWeakCount>
      <stageThreshold>-6.0090398788452148e-01</stageThreshold>
      <weakClassifiers>
        <_>
          <internalNodes>
            0 -1 54 4.4440510682761669e-03</internalNodes>
          <leafValues>
            -4.0845069289207458e-01 5.4545456171035767e-01</leafValues></_>
        <_>
          <internalNodes>
            0 -1 19 1.2653237208724022e-02</internalNodes>
          <leafValues>
            3.0554613471031189e-01 -5.5979210138320923e-01</leafValues></_>
        <_>
          <internalNodes>
            0 -1 36 3.2694899709895253e-04</internalNodes>
          <leafValues>
            2.7943527698516846e-01 -4.6221691370010376e-01</leafValues></_>
        <_>
          <internalNodes>
            0 -1 90 -6.0328684048727155e-04</internalNodes>
          <leafValues>
            6.5967226028442383e-01 -2.0741470158100128e-01</leafValues></_>
        <_>
          <internalNodes>
            0 -1 92 -8.0396159319207072e-05</internalNodes>
          <leafValues>
            5.2290076017379761e-01 -2.9133459925651550e-01</leafValues></_>
        <_>
          <internalNodes>
            0 -1 95 -6.3893443439155817e-05</internalNodes>
          <leafValues>
            4.9125370383262634e-01 -3.1572279334068298e-01</leafValues></_>
        <_>
          <internalNodes>
            0 -1 74 -1.0898184264078736e-03</internalNodes>
          <leafValues>
            -7.7719795703887939e-01 2.5741255283355713e-01</leafValues></_></weakClassifiers></_>
    <!-- stage 2 -->
    <_>
      <maxWeakCount>9</maxWeakCount>
      <stageThreshold>-8.2523590326309204e-01</stageThreshold>
      <weakClassifiers>
        <_>
          <internalNodes>
            0 -1 60 2.7263681404292583e-03</internalNodes>
          <leafValues>
            -4.0789473056793213e-01 6.6666668653488159e-01</leafValues></_>
        <_>
          <internalNodes>
            0 -1 67 2.2315408568829298e-04</internalNodes>
          <leafValues>
            -3.5173177719116211e-01 4.2375135421752930e-01</leafValues></_>
        <_>
          <internalNodes>
            0 -1 85 8.4573531057685614e-04</internalNodes>
          <leafValues>
            3.2449671626091003e-01 -4.6987661719322205e-01</leafValues></_>
        <_>
          <internalNodes>
            0 -1 30 2.1860059350728989e-02</internalNodes>
          <leafValues>
            -3.0442950129508972e-01 6.4508754014968872e-01</leafValues></_>
        <_>
          <internalNodes>
            0 -1 42 1.6336920089088380e-04</internalNodes>
          <leafValues>
            -2.3083385825157166e-01 6.6053456068038940e-01</leafValues></_>
        <_>
          <internalNodes>
            0 -1 57 -9.8115473520010710e-04</internalNodes>
          <leafValues>
            5.4581534862518311e-01 -3.0333244800567627e-01</leafValues></_>
        <_>
          <internalNodes>
            0 -1 79 2.2040274925529957e-03</internalNodes>
          <leafValues>
            2.5585836172103882e-01 -9.2740958929061890e-01</leafValues></_>
        <_>
          <internalNodes>
            0 -1 21 -9.3742483295500278e-04</internalNodes>
          <leafValues>
            5.1488870382308960e-01 -3.8364416360855103e-01</leafValues></_>
        <_>
          <internalNodes>
            0 -1 91 -6.7556445719674230e-04</internalNodes>
          <leafValues>
            8.6715292930603027e-01 -1.9920761883258820e-01</leafValues></_></weakClassifiers></_>
    <!-- stage 3 -->
    <_>
      <maxWeakCount>10</maxWeakCount>
      <stageThreshold>-8.0447405576705933e-01</stageThreshold>
      <weakClassifiers>
        <_>
          <internalNodes>
            0 -1 48 2.6162844151258469e-03</internalNodes>
          <leafValues>
            -3.4319525957107544e-01 7.8688526153564453e-01</leafValues></_>
        <_>
          <internalNodes>
            0 -1 86 -7.5566425919532776e-02</internalNodes>
          <leafValues>
            -7.2125935554504395e-01 2.4480736255645752e-01</leafValues></_>
        <_>
          <internalNodes>
            0 -1 55 -8.1563405692577362e-03</internalNodes>
          <leafValues>
            6.1618059873580933e-01 -2.4932056665420532e-01</leafValues></_>
        <_>
          <internalNodes>
            0 -1 16 1.1381802614778280e-03</internalNodes>
          <leafValues>
            -2.3765930533409119e-01 6.6832894086837769e-01</leafValues></_>
        <_>
          <internalNodes>
            0 -1 72 -3.2211426878347993e-04</internalNodes>
          <leafValues>
            -8.5646611452102661e-01 2.3895265161991119e-01</leafValues></_>
        <_>
          <internalNodes>
            0 -1 93 1.9908320973627269e-04</internalNodes>
          <leafValues>
            -2.9546770453453064e-01 6.7077952623367310e-01</leafValues></_>
        <_>
          <internalNodes>
            0 -1 40 -1.6687386669218540e-03</internalNodes>
          <leafValues>
            -5.8394986391067505e-01 3.2901796698570251e-01</leafValues></_>
        <_>
          <internalNodes>
            0 -1 26 -2.2287406027317047e-03</internalNodes>
          <leafValues>
            3.8035666942596436e-01 -5.3236371278762817e-01</leafValues></_>
        <_>
          <internalNodes>
            0 -1 12 -9.7790686413645744e-04</internalNodes>
          <leafValues>
            7.0431578159332275e-01 -2.4617362022399902e-01</leafValues></_>
        <_>
          <internalNodes>
            0 -1 29 -1.6826655715703964e-02</internalNodes>
          <leafValues>
            -7.9820603132247925e-01 2.8717559576034546e-01</leafValues></_></weakClassifiers></_>
    <!-- stage 4 -->
    <_>
      <maxWeakCount>9</maxWeakCount>
      <stageThreshold>-8.3863449096679688e-01</stageThreshold>
      <weakClassifiers>
        <_>
          <internalNodes>
            0 -1 32 2.5202516466379166e-02</internalNodes>
          <leafValues>
            -4.7126436233520508e-01 5.1758795976638794e-01</leafValues></_>
        <_>
          <internalNodes>
            0 -1 83 -3.3648079261183739e-04</internalNodes>
          <leafValues>
            5.3806555271148682e-01 -3.0521896481513977e-01</leafValues></_>
        <_>
          <internalNodes>
            0 -1 35 -3.0972895910963416e-04</internalNodes>
          <leafValues>
            4.7297355532646179e-01 -3.9302262663841248e-01</leafValues></_>
        <_>
          <internalNodes>
            0 -1 44 -3.5280128940939903e-03</internalNodes>
          <leafValues>
            -5.4042482376098633e-01 3.1640690565109253e-01</leafValues></_>
        <_>
          <internalNodes>
            0 -1 20 -1.0527020785957575e-03</internalNodes>
          <leafValues>
            6.4716762304306030e-01 -2.4205297231674194e-01</leafValues></_>
        <_>
          <internalNodes>
            0 -1 22 1.2736817821860313e-02</internalNodes>
          <leafValues>
            -2.1792842447757721e-01 7.6116573810577393e-01</leafValues></_>
        <_>
          <internalNodes>
            0 -1 76 -2.2096347529441118e-03</internalNodes>
          <leafValues>
            -6.6272395849227905e-01 2.7685576677322388e-01</leafValues></_>
        <_>
          <internalNodes>
            0 -1 27 -4.5523461885750294e-03</internalNodes>
          <leafValues>
            5.9170198440551758e-01 -3.1172567605972290e-01</leafValues></_>
        <_>
          <internalNodes>
            0 -1 56 -7.3807733133435249e-03</internalNodes>
          <leafValues>
            8.5962766408920288e-01 -2.9781666398048401e-01</leafValues></_></weakClassifiers></_>
    <!-- stage 5 -->
    <_>
      <maxWeakCount>6</maxWeakCount>
      <stageThreshold>-7.9229766130447388e-01</stageThreshold>
      <weakClassifiers>
        <_>
          <internalNodes>
            0 -1 101 1.0167991742491722e-02</internalNodes>
          <leafValues>
            -5.0000000000000000e-01 6.1702126264572144e-01</leafValues></_>
        <_>
          <internalNodes>
            0 -1 28 4.4511951506137848e-02</internalNodes>
          <leafValues>
            2.5631234049797058e-01 -8.6033368110656738e-01</leafValues></_>
        <_>
          <internalNodes>
            0 -1 3 7.0493551902472973e-04</internalNodes>
          <leafValues>
            -5.7777875661849976e-01 3.8633814454078674e-01</leafValues></_>
        <_>
          <internalNodes>
            0 -1 37 -8.4194410592317581e-03</internalNodes>
          <leafValues>
            -9.1014426946640015e-01 1.6484695672988892e-01</leafValues></_>
        <_>
          <internalNodes>
            0 -1 96 2.3078919912222773e-04</internalNodes>
          <leafValues>
            -3.3480393886566162e-01 6.5397518873214722e-01</leafValues></_>
        <_>
          <internalNodes>
            0 -1 71 4.4228322803974152e-03</internalNodes>
          <leafValues>
            3.1000006198883057e-01 -6.7602455615997314e-01</leafValues></_></weakClassifiers></_>
    <!-- stage 6 -->
    <_>
      <maxWeakCount>6</maxWeakCount>
      <stageThreshold>-5.8052539825439453e-01</stageThreshold>
      <weakClassifiers>
        <_>
          <internalNodes>
            0 -1 49 1.6756560653448105e-03</internalNodes>
          <leafValues>
            -4.8684209585189819e-01 8.2051283121109009e-01</leafValues></_>
        <_>
          <internalNodes>
            0 -1 6 6.9221155717968941e-03</internalNodes>
          <leafValues>
            5.8084386587142944e-01 -5.1219695806503296e-01</leafValues></_>
        <_>
          <internalNodes>
            0 -1 84 -2.9553388594649732e-04</internalNodes>
          <leafValues>
            7.7829885482788086e-01 -3.1835672259330750e-01</leafValues></_>
        <_>
          <internalNodes>
            0 -1 2 -1.7185760661959648e-02</internalNodes>
          <leafValues>
            -7.2758728265762329e-01 3.5280478000640869e-01</leafValues></_>
        <_>
          <internalNodes>
            0 -1 62 1.1397451162338257e-03</internalNodes>
          <leafValues>
            -3.3563724160194397e-01 7.9821538925170898e-01</leafValues></_>
        <_>
          <internalNodes>
            0 -1 59 1.2505928054451942e-02</internalNodes>
          <leafValues>
            -3.3870935440063477e-01 7.1970283985137939e-01</leafValues></_></weakClassifiers></_>
    <!-- stage 7 -->
    <_>
      <maxWeakCount>3</maxWeakCount>
      <stageThreshold>-9.9509429931640625e-01</stageThreshold>
      <weakClassifiers>
        <_>
          <internalNodes>
            0 -1 81 -5.8004865422844887e-03</internalNodes>
          <leafValues>
            -9.4535517692565918e-01 5.5234658718109131e-01</leafValues></_>
        <_>
          <internalNodes>
            0 -1 63 -1.8038866983260959e-04</internalNodes>
          <leafValues>
            6.9753956794738770e-01 -5.1305598020553589e-01</leafValues></_>
        <_>
          <internalNodes>
            0 -1 23 -3.0802949913777411e-04</internalNodes>
          <leafValues>
            -6.9200819730758667e-01 4.6331688761711121e-01</leafValues></_></weakClassifiers></_>
    <!-- stage 8 -->
    <_>
      <maxWeakCount>8</maxWeakCount>
      <stageThreshold>-6.8202936649322510e-01</stageThreshold>
      <weakClassifiers>
        <_>
          <internalNodes>
            0 -1 64 7.9520331928506494e-04</internalNodes>
          <leafValues>
            -3.2142856717109680e-01 7.0967739820480347e-01</leafValues></_>
        <_>
          <internalNodes>
            0 -1 88 1.3355867122299969e-04</internalNodes>
          <leafValues>
            -2.5476542115211487e-01 5.1592165231704712e-01</leafValues></_>
        <_>
          <internalNodes>
            0 -1 100 -2.4206502712331712e-04</internalNodes>
          <leafValues>
            5.6931191682815552e-01 -2.6811563968658447e-01</leafValues></_>
        <_>
          <internalNodes>
            0 -1 24 2.1248210221529007e-02</internalNodes>
          <leafValues>
            2.0256900787353516e-01 -9.2565506696701050e-01</leafValues></_>
        <_>
          <internalNodes>
            0 -1 70 -8.1573510542511940e-03</internalNodes>
          <leafValues>
            7.5039362907409668e-01 -2.0454962551593781e-01</leafValues></_>
        <_>
          <internalNodes>
            0 -1 68 4.5387828140519559e-04</internalNodes>
          <leafValues>
            -3.1209838390350342e-01 5.1533496379852295e-01</leafValues></_>
        <_>
          <internalNodes>
            0 -1 15 7.0542839239351451e-05</internalNodes>
          <leafValues>
            -3.6410376429557800e-01 4.3443998694419861e-01</leafValues></_>
        <_>
          <internalNodes>
            0 -1 17 4.8061041161417961e-03</internalNodes>
          <leafValues>
            2.3626989126205444e-01 -7.5765734910964966e-01</leafValues></_></weakClassifiers></_>
    <!-- stage 9 -->
    <_>
      <maxWeakCount>6</maxWeakCount>
      <stageThreshold>-6.4134865999221802e-01</stageThreshold>
      <weakClassifiers>
        <_>
          <internalNodes>
            0 -1 75 -7.8176204115152359e-03</internalNodes>
          <leafValues>
            -6.4705884456634521e-01 6.0360360145568848e-01</leafValues></_>
        <_>
          <internalNodes>
            0 -1 45 3.7791568785905838e-02</internalNodes>
          <leafValues>
            -4.4267791509628296e-01 7.2301411628723145e-01</leafValues></_>
        <_>
          <internalNodes>
            0 -1 38 -1.0525542311370373e-02</internalNodes>
          <leafValues>
            -8.7276828289031982e-01 3.5837024450302124e-01</leafValues></_>
        <_>
          <internalNodes>
            0 -1 82 -2.2582404199056327e-04</internalNodes>
          <leafValues>
            8.8851845264434814e-01 -3.7239816784858704e-01</leafValues></_>
        <_>
          <internalNodes>
            0 -1 78 1.9361576414667070e-04</internalNodes>
          <leafValues>
            -3.2951328158378601e-01 7.3966497182846069e-01</leafValues></_>
        <_>
          <internalNodes>
            0 -1 65 -4.1061118245124817e-03</internalNodes>
          <leafValues>
            8.6110794544219971e-01 -2.7724894881248474e-01</leafValues></_></weakClassifiers></_>
    <!-- stage 10 -->
    <_>
      <maxWeakCount>10</maxWeakCount>
      <stageThreshold>-9.6759176254272461e-01</stageThreshold>
      <weakClassifiers>
        <_>
          <internalNodes>
            0 -1 69 1.0464698076248169e-02</internalNodes>
          <leafValues>
            -2.1025641262531281e-01 8.8571429252624512e-01</leafValues></_>
        <_>
          <internalNodes>
            0 -1 61 -9.5948837697505951e-03</internalNodes>
          <leafValues>
            7.0143944025039673e-01 -2.2580441832542419e-01</leafValues></_>
        <_>
          <internalNodes>
            0 -1 33 8.0272983759641647e-03</internalNodes>
          <leafValues>
            2.3500035703182220e-01 -7.5097495317459106e-01</leafValues></_>
        <_>
          <internalNodes>
            0 -1 51 -5.6471530348062515e-02</internalNodes>
          <leafValues>
            8.4868198633193970e-01 -2.0067827403545380e-01</leafValues></_>
        <_>
          <internalNodes>
            0 -1 87 -4.0668662404641509e-04</internalNodes>
          <leafValues>
            7.8572005033493042e-01 -1.9360421597957611e-01</leafValues></_>
        <_>
          <internalNodes>
            0 -1 0 7.6451413333415985e-03</internalNodes>
          <leafValues>
            2.9430717229843140e-01 -7.4499213695526123e-01</leafValues></_>
        <_>
          <internalNodes>
            0 -1 99 -2.2333057131618261e-04</internalNodes>
          <leafValues>
            7.5512278079986572e-01 -2.7900445461273193e-01</leafValues></_>
        <_>
          <internalNodes>
            0 -1 25 -1.6691782511770725e-03</internalNodes>
          <leafValues>
            6.0777729749679565e-01 -2.6832294464111328e-01</leafValues></_>
        <_>
          <internalNodes>
            0 -1 41 1.7236182466149330e-03</internalNodes>
          <leafValues>
            3.0336192250251770e-01 -5.6639301776885986e-01</leafValues></_>
        <_>
          <internalNodes>
            0 -1 80 1.4250344829633832e-03</internalNodes>
          <leafValues>
            -3.6896067857742310e-01 5.6610381603240967e-01</leafValues></_></weakClassifiers></_>
    <!-- stage 11 -->
    <_>
      <maxWeakCount>4</maxWeakCount>
      <stageThreshold>-8.2114642858505249e-01</stageThreshold>
      <weakClassifiers>
        <_>
          <internalNodes>
            0 -1 34 4.8063008580356836e-04</internalNodes>
          <leafValues>
            8.9130437374114990e-01 -6.6666668653488159e-01</leafValues></_>
        <_>
          <internalNodes>
            0 -1 73 -2.6199306012131274e-04</internalNodes>
          <leafValues>
            9.4201147556304932e-01 -5.4758793115615845e-01</leafValues></_>
        <_>
          <internalNodes>
            0 -1 53 1.3892938113713171e-05</internalNodes>
          <leafValues>
            9.5632314682006836e-01 -4.7078245878219604e-01</leafValues></_>
        <_>
          <internalNodes>
            0 -1 31 -5.5364629952237010e-04</internalNodes>
          <leafValues>
            -5.5862838029861450e-01 8.6389064788818359e-01</leafValues></_></weakClassifiers></_>
    <!-- stage 12 -->
    <_>
      <maxWeakCount>5</maxWeakCount>
      <stageThreshold>-4.2070153355598450e-01</stageThreshold>
      <weakClassifiers>
        <_>
          <internalNodes>
            0 -1 47 1.6685114242136478e-03</internalNodes>
          <leafValues>
            -4.1780820488929749e-01 6.0714286565780640e-01</leafValues></_>
        <_>
          <internalNodes>
            0 -1 89 -3.7938863970339298e-03</internalNodes>
          <leafValues>
            -6.8253904581069946e-01 2.6445040106773376e-01</leafValues></_>
        <_>
          <internalNodes>
            0 -1 97 -4.4951101881451905e-04</internalNodes>
          <leafValues>
            7.3113638162612915e-01 -2.6816329360008240e-01</leafValues></_>
        <_>
          <internalNodes>
            0 -1 50 3.9190188981592655e-03</internalNodes>
          <leafValues>
            2.6853197813034058e-01 -7.0191067457199097e-01</leafValues></_>
        <_>
          <internalNodes>
            0 -1 9 3.7493807030841708e-04</internalNodes>
          <leafValues>
            -2.4808271229267120e-01 7.0273029804229736e-01</leafValues></_></weakClassifiers></_>
    <!-- stage 13 -->
    <_>
      <maxWeakCount>7</maxWeakCount>
      <stageThreshold>-1.1405177116394043e+00</stageThreshold>
      <weakClassifiers>
        <_>
          <internalNodes>
            0 -1 52 2.4630087427794933e-03</internalNodes>
          <leafValues>
            2.5146198272705078e-01 -8.9830505847930908e-01</leafValues></_>
        <_>
          <internalNodes>
            0 -1 66 -3.0282086227089167e-03</internalNodes>
          <leafValues>
            8.3101636171340942e-01 -3.0464449524879456e-01</leafValues></_>
        <_>
          <internalNodes>
            0 -1 14 -6.6317939199507236e-03</internalNodes>
          <leafValues>
            -6.0853028297424316e-01 3.0309408903121948e-01</leafValues></_>
        <_>
          <internalNodes>
            0 -1 13 1.4851236483082175e-03</internalNodes>
          <leafValues>
            -1.9401949644088745e-01 8.2454365491867065e-01</leafValues></_>
        <_>
          <internalNodes>
            0 -1 1 1.7003503162413836e-03</internalNodes>
          <leafValues>
            -2.4000787734985352e-01 6.9755107164382935e-01</leafValues></_>
        <_>
          <internalNodes>
            0 -1 77 3.3984892070293427e-03</internalNodes>
          <leafValues>
            2.7313011884689331e-01 -6.6535383462905884e-01</leafValues></_>
        <_>
          <internalNodes>
            0 -1 98 5.9168603911530226e-05</internalNodes>
          <leafValues>
            -3.1790769100189209e-01 5.5620217323303223e-01</leafValues></_></weakClassifiers></_>
    <!-- stage 14 -->
    <_>
      <maxWeakCount>4</maxWeakCount>
      <stageThreshold>-1.1538145542144775e+00</stageThreshold>
      <weakClassifiers>
        <_>
          <internalNodes>
            0 -1 18 -8.9458078145980835e-03</internalNodes>
          <leafValues>
            -8.0790960788726807e-01 4.3462896347045898e-01</leafValues></_>
        <_>
          <internalNodes>
            0 -1 58 1.2837503105401993e-02</internalNodes>
          <leafValues>
            -4.4119977951049805e-01 6.2160652875900269e-01</leafValues></_>
        <_>
          <internalNodes>
            0 -1 10 -9.0825799852609634e-03</internalNodes>
          <leafValues>
            -6.2412494421005249e-01 4.0544623136520386e-01</leafValues></_>
        <_>
          <internalNodes>
            0 -1 8 -7.5895199552178383e-04</internalNodes>
          <leafValues>
            7.7269035577774048e-01 -3.1015136837959290e-01</leafValues></_></weakClassifiers></_></stages>
  <features>
    <_>
      <rects>
        <_>
          0 3 44 7 -1.</_>
        <_>
          11 3 22 7 2.</_></rects>
      <tilted>0</tilted></_>
    <_>
      <rects>
        <_>
          0 6 3 38 -1.</_>
        <_>
          0 25 3 19 2.</_></rects>
      <tilted>0</tilted></_>
    <_>
      <rects>
        <_>
          0 57 90 16 -1.</_>
        <_>
          0 57 45 8 2.</_>
        <_>
          45 65 45 8 2.</_></rects>
      <tilted>0</tilted></_>
    <_>
      <rects>
        <_>
          1 7 38 70 -1.</_>
        <_>
          20 7 19 70 2.</_></rects>
      <tilted>0</tilted></_>
    <_>
      <rects>
        <_>
          1 9 3 10 -1.</_>
        <_>
          2 9 1 10 3.</_></rects>
      <tilted>0</tilted></_>
    <_>
      <rects>
        <_>
          1 27 4 56 -1.</_>
        <_>
          1 27 2 28 2.</_>
        <_>
          3 55 2 28 2.</_></rects>
      <tilted>0</tilted></_>
    <_>
      <rects>
        <_>
          2 62 33 17 -1.</_>
        <_>
          13 62 11 17 3.</_></rects>
      <tilted>0</tilted></_>
    <_>
      <rects>
        <_>
          3 22 71 4 -1.</_>
        <_>
          3 23 71 2 2.</_></rects>
      <tilted>0</tilted></_>
    <_>
      <rects>
        <_>
          5 5 15 4 -1.</_>
        <_>
          4 6 15 2 2.</_></rects>
      <tilted>1</tilted></_>
    <_>
      <rects>
        <_>
          6 12 8 3 -1.</_>
        <_>
          8 12 4 3 2.</_></rects>
      <tilted>0</tilted></_>
    <_>
      <rects>
        <_>
          7 43 44 12 -1.</_>
        <_>
          7 43 22 6 2.</_>
        <_>
          29 49 22 6 2.</_></rects>
      <tilted>0</tilted></_>
    <_>
      <rects>
        <_>
          10 24 29 14 -1.</_>
        <_>
          10 31 29 7 2.</_></rects>
      <tilted>0</tilted></_>
    <_>
      <rects>
        <_>
          11 6 8 16 -1.</_>
        <_>
          13 6 4 16 2.</_></rects>
      <tilted>0</tilted></_>
    <_>
      <rects>
        <_>
          12 4 76 4 -1.</_>
        <_>
          12 4 38 2 2.</_>
        <_>
          50 6 38 2 2.</_></rects>
      <tilted>0</tilted></_>
    <_>
      <rects>
        <_>
          12 7 29 32 -1.</_>
        <_>
          12 15 29 16 2.</_></rects>
      <tilted>0</tilted></_>
    <_>
      <rects>
        <_>
          15 68 18 2 -1.</_>
        <_>
          15 68 9 1 2.</_>
        <_>
          24 69 9 1 2.</_></rects>
      <tilted>0</tilted></_>
    <_>
      <rects>
        <_>
          16 68 20 6 -1.</_>
        <_>
          16 68 10 3 2.</_>
        <_>
          26 71 10 3 2.</_></rects>
      <tilted>0</tilted></_>
    <_>
      <rects>
        <_>
          17 9 6 77 -1.</_>
        <_>
          20 9 3 77 2.</_></rects>
      <tilted>0</tilted></_>
    <_>
      <rects>
        <_>
          18 4 19 36 -1.</_>
        <_>
          18 13 19 18 2.</_></rects>
      <tilted>0</tilted></_>
    <_>
      <rects>
        <_>
          18 28 52 20 -1.</_>
        <_>
          18 38 52 10 2.</_></rects>
      <tilted>0</tilted></_>
    <_>
      <rects>
        <_>
          21 2 6 53 -1.</_>
        <_>
          23 2 2 53 3.</_></rects>
      <tilted>0</tilted></_>
    <_>
      <rects>
        <_>
          21 81 17 8 -1.</_>
        <_>
          21 85 17 4 2.</_></rects>
      <tilted>0</tilted></_>
    <_>
      <rects>
        <_>
          22 0 48 9 -1.</_>
        <_>
          38 3 16 3 9.</_></rects>
      <tilted>0</tilted></_>
    <_>
      <rects>
        <_>
          23 12 22 2 -1.</_>
        <_>
          23 12 11 1 2.</_>
        <_>
          34 13 11 1 2.</_></rects>
      <tilted>0</tilted></_>
    <_>
      <rects>
        <_>
          23 26 27 18 -1.</_>
        <_>
          17 32 27 6 3.</_></rects>
      <tilted>1</tilted></_>
    <_>
      <rects>
        <_>
          25 29 21 6 -1.</_>
        <_>
          32 31 7 2 9.</_></rects>
      <tilted>0</tilted></_>
    <_>
      <rects>
        <_>
          27 4 33 36 -1.</_>
        <_>
          38 16 11 12 9.</_></rects>
      <tilted>0</tilted></_>
    <_>
      <rects>
        <_>
          27 4 33 21 -1.</_>
        <_>
          38 4 11 21 3.</_></rects>
      <tilted>0</tilted></_>
    <_>
      <rects>
        <_>
          27 6 62 21 -1.</_>
        <_>
          20 13 62 7 3.</_></rects>
      <tilted>1</tilted></_>
    <_>
      <rects>
        <_>
          27 16 31 24 -1.</_>
        <_>
          27 24 31 8 3.</_></rects>
      <tilted>0</tilted></_>
    <_>
      <rects>
        <_>
          28 0 52 6 -1.</_>
        <_>
          41 13 26 6 2.</_></rects>
      <tilted>1</tilted></_>
    <_>
      <rects>
        <_>
          28 10 9 8 -1.</_>
        <_>
          31 13 3 8 3.</_></rects>
      <tilted>1</tilted></_>
    <_>
      <rects>
        <_>
          29 15 36 12 -1.</_>
        <_>
          38 24 18 12 2.</_></rects>
      <tilted>1</tilted></_>
    <_>
      <rects>
        <_>
          29 43 61 15 -1.</_>
        <_>
          29 48 61 5 3.</_></rects>
      <tilted>0</tilted></_>
    <_>
      <rects>
        <_>
          30 24 15 1 -1.</_>
        <_>
          35 29 5 1 3.</_></rects>
      <tilted>1</tilted></_>
    <_>
      <rects>
        <_>
          30 29 20 2 -1.</_>
        <_>
          35 34 10 2 2.</_></rects>
      <tilted>1</tilted></_>
    <_>
      <rects>
        <_>
          30 46 6 4 -1.</_>
        <_>
          32 48 2 4 3.</_></rects>
      <tilted>1</tilted></_>
    <_>
      <rects>
        <_>
          30 48 26 8 -1.</_>
        <_>
          30 48 26 4 2.</_></rects>
      <tilted>1</tilted></_>
    <_>
      <rects>
        <_>
          32 46 31 9 -1.</_>
        <_>
          29 49 31 3 3.</_></rects>
      <tilted>1</tilted></_>
    <_>
      <rects>
        <_>
          32 67 6 5 -1.</_>
        <_>
          34 67 2 5 3.</_></rects>
      <tilted>0</tilted></_>
    <_>
      <rects>
        <_>
          33 43 14 6 -1.</_>
        <_>
          33 43 14 3 2.</_></rects>
      <tilted>1</tilted></_>
    <_>
      <rects>
        <_>
          33 61 24 21 -1.</_>
        <_>
          39 61 12 21 2.</_></rects>
      <tilted>0</tilted></_>
    <_>
      <rects>
        <_>
          33 78 2 4 -1.</_>
        <_>
          32 79 2 2 2.</_></rects>
      <tilted>1</tilted></_>
    <_>
      <rects>
        <_>
          34 67 16 6 -1.</_>
        <_>
          34 67 8 6 2.</_></rects>
      <tilted>1</tilted></_>
    <_>
      <rects>
        <_>
          36 3 12 23 -1.</_>
        <_>
          40 7 4 23 3.</_></rects>
      <tilted>1</tilted></_>
    <_>
      <rects>
        <_>
          36 26 24 33 -1.</_>
        <_>
          44 37 8 11 9.</_></rects>
      <tilted>0</tilted></_>
    <_>
      <rects>
        <_>
          37 42 15 6 -1.</_>
        <_>
          42 44 5 2 9.</_></rects>
      <tilted>0</tilted></_>
    <_>
      <rects>
        <_>
          38 42 8 4 -1.</_>
        <_>
          42 42 4 4 2.</_></rects>
      <tilted>0</tilted></_>
    <_>
      <rects>
        <_>
          38 45 12 2 -1.</_>
        <_>
          42 45 4 2 3.</_></rects>
      <tilted>0</tilted></_>
    <_>
      <rects>
        <_>
          39 36 16 1 -1.</_>
        <_>
          43 40 8 1 2.</_></rects>
      <tilted>1</tilted></_>
    <_>
      <rects>
        <_>
          39 70 22 20 -1.</_>
        <_>
          39 75 22 10 2.</_></rects>
      <tilted>0</tilted></_>
    <_>
      <rects>
        <_>
          40 1 24 76 -1.</_>
        <_>
          40 1 12 38 2.</_>
        <_>
          52 39 12 38 2.</_></rects>
      <tilted>0</tilted></_>
    <_>
      <rects>
        <_>
          40 22 21 6 -1.</_>
        <_>
          40 24 21 2 3.</_></rects>
      <tilted>0</tilted></_>
    <_>
      <rects>
        <_>
          40 44 6 1 -1.</_>
        <_>
          42 44 2 1 3.</_></rects>
      <tilted>0</tilted></_>
    <_>
      <rects>
        <_>
          41 38 12 2 -1.</_>
        <_>
          45 42 4 2 3.</_></rects>
      <tilted>1</tilted></_>
    <_>
      <rects>
        <_>
          42 3 42 12 -1.</_>
        <_>
          56 3 14 12 3.</_></rects>
      <tilted>0</tilted></_>
    <_>
      <rects>
        <_>
          42 13 21 6 -1.</_>
        <_>
          49 20 7 6 3.</_></rects>
      <tilted>1</tilted></_>
    <_>
      <rects>
        <_>
          42 16 18 2 -1.</_>
        <_>
          48 22 6 2 3.</_></rects>
      <tilted>1</tilted></_>
    <_>
      <rects>
        <_>
          42 29 6 27 -1.</_>
        <_>
          44 38 2 9 9.</_></rects>
      <tilted>0</tilted></_>
    <_>
      <rects>
        <_>
          42 29 6 36 -1.</_>
        <_>
          44 41 2 12 9.</_></rects>
      <tilted>0</tilted></_>
    <_>
      <rects>
        <_>
          42 42 6 6 -1.</_>
        <_>
          44 44 2 2 9.</_></rects>
      <tilted>0</tilted></_>
    <_>
      <rects>
        <_>
          44 15 33 8 -1.</_>
        <_>
          55 26 11 8 3.</_></rects>
      <tilted>1</tilted></_>
    <_>
      <rects>
        <_>
          44 16 12 36 -1.</_>
        <_>
          48 16 4 36 3.</_></rects>
      <tilted>0</tilted></_>
    <_>
      <rects>
        <_>
          44 43 2 2 -1.</_>
        <_>
          44 43 1 2 2.</_></rects>
      <tilted>1</tilted></_>
    <_>
      <rects>
        <_>
          44 43 4 2 -1.</_>
        <_>
          45 44 2 2 2.</_></rects>
      <tilted>1</tilted></_>
    <_>
      <rects>
        <_>
          45 11 18 10 -1.</_>
        <_>
          51 17 6 10 3.</_></rects>
      <tilted>1</tilted></_>
    <_>
      <rects>
        <_>
          45 24 4 38 -1.</_>
        <_>
          45 24 2 19 2.</_>
        <_>
          47 43 2 19 2.</_></rects>
      <tilted>0</tilted></_>
    <_>
      <rects>
        <_>
          47 6 9 8 -1.</_>
        <_>
          47 6 9 4 2.</_></rects>
      <tilted>1</tilted></_>
    <_>
      <rects>
        <_>
          47 27 10 8 -1.</_>
        <_>
          47 31 10 4 2.</_></rects>
      <tilted>0</tilted></_>
    <_>
      <rects>
        <_>
          47 37 6 10 -1.</_>
        <_>
          49 39 2 10 3.</_></rects>
      <tilted>1</tilted></_>
    <_>
      <rects>
        <_>
          48 18 6 36 -1.</_>
        <_>
          50 30 2 12 9.</_></rects>
      <tilted>0</tilted></_>
    <_>
      <rects>
        <_>
          49 39 18 48 -1.</_>
        <_>
          55 39 6 48 3.</_></rects>
      <tilted>0</tilted></_>
    <_>
      <rects>
        <_>
          49 43 2 6 -1.</_>
        <_>
          49 43 1 6 2.</_></rects>
      <tilted>1</tilted></_>
    <_>
      <rects>
        <_>
          50 33 3 42 -1.</_>
        <_>
          51 47 1 14 9.</_></rects>
      <tilted>0</tilted></_>
    <_>
      <rects>
        <_>
          51 7 4 20 -1.</_>
        <_>
          52 8 2 20 2.</_></rects>
      <tilted>1</tilted></_>
    <_>
      <rects>
        <_>
          52 43 13 44 -1.</_>
        <_>
          52 54 13 22 2.</_></rects>
      <tilted>0</tilted></_>
    <_>
      <rects>
        <_>
          54 34 12 14 -1.</_>
        <_>
          54 34 6 7 2.</_>
        <_>
          60 41 6 7 2.</_></rects>
      <tilted>0</tilted></_>
    <_>
      <rects>
        <_>
          55 26 6 32 -1.</_>
        <_>
          55 26 3 32 2.</_></rects>
      <tilted>1</tilted></_>
    <_>
      <rects>
        <_>
          57 6 1 16 -1.</_>
        <_>
          57 14 1 8 2.</_></rects>
      <tilted>0</tilted></_>
    <_>
      <rects>
        <_>
          57 29 8 8 -1.</_>
        <_>
          55 31 8 4 2.</_></rects>
      <tilted>1</tilted></_>
    <_>
      <rects>
        <_>
          58 40 21 21 -1.</_>
        <_>
          65 40 7 21 3.</_></rects>
      <tilted>0</tilted></_>
    <_>
      <rects>
        <_>
          60 64 26 12 -1.</_>
        <_>
          60 64 13 6 2.</_>
        <_>
          73 70 13 6 2.</_></rects>
      <tilted>0</tilted></_>
    <_>
      <rects>
        <_>
          63 7 16 1 -1.</_>
        <_>
          71 7 8 1 2.</_></rects>
      <tilted>0</tilted></_>
    <_>
      <rects>
        <_>
          63 16 20 6 -1.</_>
        <_>
          68 16 10 6 2.</_></rects>
      <tilted>0</tilted></_>
    <_>
      <rects>
        <_>
          64 84 6 6 -1.</_>
        <_>
          66 84 2 6 3.</_></rects>
      <tilted>0</tilted></_>
    <_>
      <rects>
        <_>
          67 36 8 34 -1.</_>
        <_>
          71 36 4 34 2.</_></rects>
      <tilted>0</tilted></_>
    <_>
      <rects>
        <_>
          70 7 12 52 -1.</_>
        <_>
          70 7 12 26 2.</_></rects>
      <tilted>1</tilted></_>
    <_>
      <rects>
        <_>
          71 5 2 46 -1.</_>
        <_>
          71 5 1 23 2.</_>
        <_>
          72 28 1 23 2.</_></rects>
      <tilted>0</tilted></_>
    <_>
      <rects>
        <_>
          72 8 8 4 -1.</_>
        <_>
          76 8 4 4 2.</_></rects>
      <tilted>0</tilted></_>
    <_>
      <rects>
        <_>
          73 0 16 21 -1.</_>
        <_>
          77 0 8 21 2.</_></rects>
      <tilted>0</tilted></_>
    <_>
      <rects>
        <_>
          75 0 4 19 -1.</_>
        <_>
          76 1 2 19 2.</_></rects>
      <tilted>1</tilted></_>
    <_>
      <rects>
        <_>
          77 3 2 12 -1.</_>
        <_>
          77 9 2 6 2.</_></rects>
      <tilted>0</tilted></_>
    <_>
      <rects>
        <_>
          77 19 2 8 -1.</_>
        <_>
          77 19 1 4 2.</_>
        <_>
          78 23 1 4 2.</_></rects>
      <tilted>0</tilted></_>
    <_>
      <rects>
        <_>
          77 36 5 4 -1.</_>
        <_>
          77 38 5 2 2.</_></rects>
      <tilted>0</tilted></_>
    <_>
      <rects>
        <_>
          78 45 9 16 -1.</_>
        <_>
          78 53 9 8 2.</_></rects>
      <tilted>0</tilted></_>
    <_>
      <rects>
        <_>
          79 42 3 2 -1.</_>
        <_>
          79 42 3 1 2.</_></rects>
      <tilted>1</tilted></_>
    <_>
      <rects>
        <_>
          80 25 6 3 -1.</_>
        <_>
          82 26 2 1 9.</_></rects>
      <tilted>0</tilted></_>
    <_>
      <rects>
        <_>
          80 33 6 8 -1.</_>
        <_>
          82 33 2 8 3.</_></rects>
      <tilted>0</tilted></_>
    <_>
      <rects>
        <_>
          81 61 4 4 -1.</_>
        <_>
          82 61 2 4 2.</_></rects>
      <tilted>0</tilted></_>
    <_>
      <rects>
        <_>
          83 66 2 9 -1.</_>
        <_>
          84 66 1 9 2.</_></rects>
      <tilted>0</tilted></_>
    <_>
      <rects>
        <_>
          84 63 4 2 -1.</_>
        <_>
          84 63 4 1 2.</_></rects>
      <tilted>1</tilted></_>
    <_>
      <rects>
        <_>
          86 0 3 68 -1.</_>
        <_>
          69 17 3 34 2.</_></rects>
      <tilted>1</tilted></_></features></cascade>
</opencv_storage>
