<?xml version="1.0"?>
<opencv_storage>
<stage13>
  <maxWeakCount>7</maxWeakCount>
  <stageThreshold>-1.1405177116394043e+00</stageThreshold>
  <weakClassifiers>
    <_>
      <internalNodes>
        0 -1 33651825 2.4630087427794933e-03</internalNodes>
      <leafValues>
        2.5146198272705078e-01 -8.9830505847930908e-01</leafValues></_>
    <_>
      <internalNodes>
        0 -1 37032952 -3.0282086227089167e-03</internalNodes>
      <leafValues>
        8.3101636171340942e-01 -3.0464449524879456e-01</leafValues></_>
    <_>
      <internalNodes>
        0 -1 10952392 -6.6317939199507236e-03</internalNodes>
      <leafValues>
        -6.0853028297424316e-01 3.0309408903121948e-01</leafValues></_>
    <_>
      <internalNodes>
        0 -1 10899113 1.4851236483082175e-03</internalNodes>
      <leafValues>
        -1.9401949644088745e-01 8.2454365491867065e-01</leafValues></_>
    <_>
      <internalNodes>
        0 -1 119501 1.7003503162413836e-03</internalNodes>
      <leafValues>
        -2.4000787734985352e-01 6.9755107164382935e-01</leafValues></_>
    <_>
      <internalNodes>
        0 -1 42988772 3.3984892070293427e-03</internalNodes>
      <leafValues>
        2.7313011884689331e-01 -6.6535383462905884e-01</leafValues></_>
    <_>
      <internalNodes>
        0 -1 52288114 5.9168603911530226e-05</internalNodes>
      <leafValues>
        -3.1790769100189209e-01 5.5620217323303223e-01</leafValues></_></weakClassifiers></stage13>
</opencv_storage>
