<?xml version="1.0"?>
<opencv_storage>
<stage3>
  <maxWeakCount>10</maxWeakCount>
  <stageThreshold>-8.0447405576705933e-01</stageThreshold>
  <weakClassifiers>
    <_>
      <internalNodes>
        0 -1 32469763 2.6162844151258469e-03</internalNodes>
      <leafValues>
        -3.4319525957107544e-01 7.8688526153564453e-01</leafValues></_>
    <_>
      <internalNodes>
        0 -1 49427019 -7.5566425919532776e-02</internalNodes>
      <leafValues>
        -7.2125935554504395e-01 2.4480736255645752e-01</leafValues></_>
    <_>
      <internalNodes>
        0 -1 34771005 -8.1563405692577362e-03</internalNodes>
      <leafValues>
        6.1618059873580933e-01 -2.4932056665420532e-01</leafValues></_>
    <_>
      <internalNodes>
        0 -1 15125918 1.1381802614778280e-03</internalNodes>
      <leafValues>
        -2.3765930533409119e-01 6.6832894086837769e-01</leafValues></_>
    <_>
      <internalNodes>
        0 -1 39707091 -3.2211426878347993e-04</internalNodes>
      <leafValues>
        -8.5646611452102661e-01 2.3895265161991119e-01</leafValues></_>
    <_>
      <internalNodes>
        0 -1 51508619 1.9908320973627269e-04</internalNodes>
      <leafValues>
        -2.9546770453453064e-01 6.7077952623367310e-01</leafValues></_>
    <_>
      <internalNodes>
        0 -1 28783328 -1.6687386669218540e-03</internalNodes>
      <leafValues>
        -5.8394986391067505e-01 3.2901796698570251e-01</leafValues></_>
    <_>
      <internalNodes>
        0 -1 23592985 -2.2287406027317047e-03</internalNodes>
      <leafValues>
        3.8035666942596436e-01 -5.3236371278762817e-01</leafValues></_>
    <_>
      <internalNodes>
        0 -1 10043340 -9.7790686413645744e-04</internalNodes>
      <leafValues>
        7.0431578159332275e-01 -2.4617362022399902e-01</leafValues></_>
    <_>
      <internalNodes>
        0 -1 23791932 -1.6826655715703964e-02</internalNodes>
      <leafValues>
        -7.9820603132247925e-01 2.8717559576034546e-01</leafValues></_></weakClassifiers></stage3>
</opencv_storage>
