<?xml version="1.0"?>
<opencv_storage>
<stage10>
  <maxWeakCount>10</maxWeakCount>
  <stageThreshold>-9.6759176254272461e-01</stageThreshold>
  <weakClassifiers>
    <_>
      <internalNodes>
        0 -1 38432619 1.0464698076248169e-02</internalNodes>
      <leafValues>
        -2.1025641262531281e-01 8.8571429252624512e-01</leafValues></_>
    <_>
      <internalNodes>
        0 -1 36275030 -9.5948837697505951e-03</internalNodes>
      <leafValues>
        7.0143944025039673e-01 -2.2580441832542419e-01</leafValues></_>
    <_>
      <internalNodes>
        0 -1 25702615 8.0272983759641647e-03</internalNodes>
      <leafValues>
        2.3500035703182220e-01 -7.5097495317459106e-01</leafValues></_>
    <_>
      <internalNodes>
        0 -1 33358612 -5.6471530348062515e-02</internalNodes>
      <leafValues>
        8.4868198633193970e-01 -2.0067827403545380e-01</leafValues></_>
    <_>
      <internalNodes>
        0 -1 49738174 -4.0668662404641509e-04</internalNodes>
      <leafValues>
        7.8572005033493042e-01 -1.9360421597957611e-01</leafValues></_>
    <_>
      <internalNodes>
        0 -1 64666 7.6451413333415985e-03</internalNodes>
      <leafValues>
        2.9430717229843140e-01 -7.4499213695526123e-01</leafValues></_>
    <_>
      <internalNodes>
        0 -1 52548005 -2.2333057131618261e-04</internalNodes>
      <leafValues>
        7.5512278079986572e-01 -2.7900445461273193e-01</leafValues></_>
    <_>
      <internalNodes>
        0 -1 22345236 -1.6691782511770725e-03</internalNodes>
      <leafValues>
        6.0777729749679565e-01 -2.6832294464111328e-01</leafValues></_>
    <_>
      <internalNodes>
        0 -1 28904653 1.7236182466149330e-03</internalNodes>
      <leafValues>
        3.0336192250251770e-01 -5.6639301776885986e-01</leafValues></_>
    <_>
      <internalNodes>
        0 -1 44644156 1.4250344829633832e-03</internalNodes>
      <leafValues>
        -3.6896067857742310e-01 5.6610381603240967e-01</leafValues></_></weakClassifiers></stage10>
</opencv_storage>
