<?xml version="1.0"?>
<opencv_storage>
<stage1>
  <maxWeakCount>7</maxWeakCount>
  <stageThreshold>-6.0090398788452148e-01</stageThreshold>
  <weakClassifiers>
    <_>
      <internalNodes>
        0 -1 34505862 4.4440510682761669e-03</internalNodes>
      <leafValues>
        -4.0845069289207458e-01 5.4545456171035767e-01</leafValues></_>
    <_>
      <internalNodes>
        0 -1 16498386 1.2653237208724022e-02</internalNodes>
      <leafValues>
        3.0554613471031189e-01 -5.5979210138320923e-01</leafValues></_>
    <_>
      <internalNodes>
        0 -1 26507009 3.2694899709895253e-04</internalNodes>
      <leafValues>
        2.7943527698516846e-01 -4.6221691370010376e-01</leafValues></_>
    <_>
      <internalNodes>
        0 -1 50875730 -6.0328684048727155e-04</internalNodes>
      <leafValues>
        6.5967226028442383e-01 -2.0741470158100128e-01</leafValues></_>
    <_>
      <internalNodes>
        0 -1 51448053 -8.0396159319207072e-05</internalNodes>
      <leafValues>
        5.2290076017379761e-01 -2.9133459925651550e-01</leafValues></_>
    <_>
      <internalNodes>
        0 -1 51926990 -6.3893443439155817e-05</internalNodes>
      <leafValues>
        4.9125370383262634e-01 -3.1572279334068298e-01</leafValues></_>
    <_>
      <internalNodes>
        0 -1 40540918 -1.0898184264078736e-03</internalNodes>
      <leafValues>
        -7.7719795703887939e-01 2.5741255283355713e-01</leafValues></_></weakClassifiers></stage1>
</opencv_storage>
